,0,1,2,3,4,5,6,7,8,9,10,11,12,13,14,15,16,17,18,19,20,21,22,23,24,25,26,27,28,29,30,31,32,33,34,35,36,37,38,39
N64bd512e5e3b4fe58dbe948048347898,0.16787411,0.009634916,-0.17120497,-0.029210456,-0.09270697,-0.30080166,0.25850117,-0.0026190937,-0.22225454,0.00040592026,0.041842896,0.15785538,0.56445515,-0.29635674,-0.04180781,0.2908787,-0.42410827,0.031816162,0.11895533,0.017680028,0.042130515,0.23398902,0.17327721,-0.57886386,0.1982911,-0.08441265,0.037632518,-0.39784765,-0.34015384,-0.010395955,-0.13771778,-0.35781467,-0.0001873465,0.34123626,0.1522342,0.28314555,-0.041155666,0.10796644,0.1559179,0.11460964
family#Brother,-0.03601992,0.075390995,-0.3223595,0.13443622,-0.14242707,-0.44021812,0.3573826,0.29466856,-0.58424187,0.09385,0.28819475,0.35718372,0.30091602,-0.34042916,-0.40912554,0.41310468,-0.2625249,0.22455373,-0.21360607,-0.12028521,0.20986257,0.26281178,-0.014620234,-0.58984405,0.099660166,0.111340836,0.07670127,-0.2637363,-0.21400435,-0.14596851,0.30764693,-0.5556499,-0.046911545,0.15919267,0.14915635,-0.07266247,0.14152227,-0.16240723,-0.2079696,0.4167281
family#Child,-0.11841759,0.09221106,-0.21400493,0.12712823,-0.2249179,-0.53285307,0.25042233,0.10560474,-0.3915912,0.033915624,-0.11455979,0.11325602,0.5847269,-0.14513709,-0.29385433,0.2034281,-0.5876861,-0.24629034,0.20813833,0.09628219,0.16733387,0.35879722,0.107672326,-0.4937022,0.087267056,0.13724282,-0.0054381834,-0.2447318,-0.19605082,-0.07812142,0.016420212,0.028694713,-0.17299536,0.34826037,0.23011275,0.32524604,-0.007729409,0.28960705,0.090719424,0.32926822
family#Daughter,-0.06970196,-0.059442833,-0.18113452,0.15255885,-0.17022468,-0.34935895,0.24127065,0.43891358,-0.24994346,0.041793376,-0.22051236,0.15981054,0.26072472,-0.25992432,-0.37541065,0.46847323,-0.39413765,-0.13874114,0.7630193,-0.28744462,0.26005876,0.29562327,-0.1628072,-0.5520994,0.10076882,-0.09242119,-0.0028157136,-0.420392,-0.11849329,-0.011470805,-0.22878492,-0.47093832,0.07950938,0.29844186,0.18250772,-0.0626288,0.26481384,0.012346038,0.6799077,0.45548615
family#F10F172,0.2934413,0.10028916,-0.0040700007,-0.1098804,-0.267032,-0.37548304,-0.08853872,0.5079856,-0.2607655,0.09320914,0.11720857,0.27499932,0.35899898,-0.3877909,0.19601348,0.120428495,-0.1110004,0.21969688,0.11834935,-0.09793436,0.22614737,0.28283605,0.57179385,0.17337182,0.43381712,-0.11123027,0.17873518,-0.31885853,-0.31190243,-0.3915071,0.2628601,-0.6258202,0.12430244,0.08829331,-0.043376718,0.2618528,-0.2792774,0.18226998,0.07585304,0.116961285
family#F10F174,0.27809432,0.084331594,0.006236877,0.017845692,-0.21987933,0.05030464,-0.08455753,0.35020706,-0.21574372,0.31820422,0.085462324,0.25360012,0.3832826,-0.20570521,-0.20631321,0.22073346,-0.32920632,0.11020062,0.13602953,-0.20359908,0.18665971,0.27991554,0.55434424,-0.037428405,0.3963573,0.08663162,0.14351088,-0.44228745,-0.37187573,0.34750244,0.19680254,-0.35375136,0.10336345,0.018684436,0.089622885,0.19432274,-0.15802695,0.14532457,0.15473604,0.17918868
family#F10F175,0.3596519,-0.13959892,-0.28563467,0.017936619,-0.19003065,-0.1551823,0.034461427,0.233348,-0.31487915,-0.52111214,0.09796612,-0.00720775,0.49453592,-0.26217222,-0.3230047,0.06958906,-0.44118726,0.3644524,0.3579937,-0.16594414,-0.01538157,0.13663888,0.6739205,-0.14765473,0.08581577,0.2976075,0.1298162,-0.055319287,-0.29532748,-0.15897956,0.12867063,0.009504617,0.097073585,-0.0056709712,0.1439018,0.3736632,0.07174603,0.21864484,0.2253035,-0.10730343
family#F10F177,0.40497252,-0.14020877,-0.071175866,-0.032347336,-0.21724746,-0.10741163,-0.007850417,0.24859737,-0.3267339,-0.55748755,0.13107683,0.09436034,0.4850471,-0.09425375,-0.21282215,0.12608556,-0.3029249,-0.07803448,-0.19957793,-0.18986173,-0.20018095,0.10816651,0.7688163,-0.2083309,0.09277517,0.25207692,0.13453896,-0.22657764,-0.29437655,-0.13347133,0.065547995,-0.189336,0.1205222,0.31820053,0.12568502,0.18888123,-0.13541913,-0.18120587,0.2842732,-0.095796384
family#F10F179,0.43026364,-0.236261,-0.10747518,-0.21069609,-0.30296662,-0.5465832,0.020867372,0.26709062,-0.40387887,0.19566105,0.13048723,0.0864001,0.40986198,-0.37855053,-0.20787115,0.11526875,-0.18997303,0.20771633,-0.015802588,-0.16798542,-0.19499826,0.42564198,0.5828071,-0.020840555,0.14613436,0.055766065,0.21861339,-0.1207848,-0.08595073,0.3463519,0.15651557,-0.3531894,0.04851333,0.19410802,-0.29097646,0.28704697,-0.11140304,-0.053809557,0.18130647,-0.08086033
family#F10F181,0.20582737,-0.22908229,-0.20904414,-0.19390711,-0.44964007,-0.23558791,-0.07389903,0.3680175,-0.3120329,0.13255577,0.20276886,0.014074294,0.33998522,-0.34421656,-0.03417492,0.11220287,-0.3158984,0.2176103,-0.038218427,-0.24632098,0.10394291,0.23182051,0.6869426,-0.11687921,0.06437245,0.060966056,0.105637886,-0.10800689,-0.28930646,0.34795716,0.21688218,-0.47166294,0.087898724,0.14910094,-0.24982311,0.3321519,-0.19342339,0.069588855,0.22080475,-0.102143325
family#F10F185,0.089455396,-0.0039292383,-0.27555582,0.11301382,-0.034229144,-0.3182383,-0.05566318,0.37546024,-0.24399532,-0.12604208,0.12587875,0.07405442,0.492105,-0.33154738,-0.20183524,0.15823656,-0.25196606,0.21498375,0.034615356,-0.27240348,0.056583345,0.25981945,0.3944654,-0.21605936,0.03516895,0.19074656,0.12019501,-0.28209862,-0.017825492,-0.2491461,0.10482755,-0.5022241,0.048483927,0.145353,0.06815643,0.23362929,-0.18321404,-0.16309305,0.16446108,0.12665327
family#F10F186,0.6127386,-0.23102807,-0.010850666,-0.22963737,-0.40603736,-0.1777435,-0.09382101,0.40636346,-0.22590038,0.2039128,0.07447289,0.19565701,0.3260865,-0.4920503,-0.3331807,0.11826009,-0.20664953,0.0633021,0.25356925,-0.09702534,0.21274078,0.22974549,0.5544975,0.24246648,-0.116713874,-0.083023034,0.4119572,-0.06899691,-0.1551968,0.29856658,0.37520573,-0.4726792,0.012962097,0.22804438,-0.2574406,0.22549279,-0.20774768,-0.06353868,0.18162592,-0.056548003
family#F10F189,0.11561522,-0.08290879,-0.29656482,-0.09299493,-0.07961617,-0.16409796,-0.055839736,0.3695948,-0.17503762,-0.09908319,0.106818035,0.08066047,0.43086174,-0.40979162,-0.37867606,0.15044469,-0.20624723,-0.28289896,0.12920704,-0.30359924,0.16456465,0.3668555,0.24032588,0.09813203,-0.027671065,0.078473575,0.19404623,-0.19445087,-0.16817938,-0.026390998,0.25387856,-0.35772312,-0.008196449,0.19446631,0.32613882,0.23727247,-0.21729903,0.31167737,0.13150178,0.12776542
family#F10F191,0.122328,-0.081202604,-0.22928523,0.046815123,-0.10078807,-0.19138503,-0.060490806,0.14678322,-0.27807856,0.08607938,0.14271384,0.10244923,0.48671558,-0.28952447,-0.4201239,0.23175624,-0.2650497,0.032019794,-0.07153129,-0.3151047,0.0927044,0.37745735,0.21905771,-0.017335687,0.09470124,0.16935392,0.16406679,-0.36056188,0.026614252,-0.18346798,0.07170677,-0.2800287,0.0019865509,0.32473162,0.21766144,0.21378501,-0.17222174,-0.114486024,0.1421692,0.107687704
family#F10F192,0.27232984,-0.09582726,-0.18319595,-0.26121902,0.049857713,-0.23651332,-0.045626733,0.3532228,-0.26923794,-0.18597455,0.053357564,0.11064301,0.4383769,-0.59520423,-0.3574062,0.062024657,-0.24436513,0.0053150533,-0.10395279,-0.12335645,-0.03804544,0.26445594,0.50983846,-0.12585308,-0.09714565,0.3736331,0.2272181,-0.051430527,-0.36579275,-0.11579861,0.081858076,-0.1716137,0.15434371,0.30602446,0.27435845,0.34212855,-0.1942862,-0.23017971,0.30052555,-0.096833184
family#F10F193,0.4686181,-0.0067282007,-0.22540422,-0.22642118,0.09082528,-0.21786189,0.0061540846,0.2944151,-0.3054596,-0.22758499,0.060029764,0.091608614,0.51347494,-0.5180297,-0.2947838,0.22386998,-0.120838515,0.1767533,0.16899215,-0.120882854,-0.22544871,0.38554034,0.52326655,-0.0072612306,-0.10637166,0.32597116,0.18583074,-0.11065157,-0.30343363,-0.084769264,0.125804,-0.11803976,0.14929028,0.28478536,0.30410782,0.23714003,-0.14667925,0.05207041,0.23734076,-0.08778594
family#F10F195,0.46284267,-0.32343286,-0.1786665,-0.20743284,-0.23611543,-0.625001,-0.043050073,0.28451866,-0.21748328,0.17935051,0.12705,0.007942414,0.31937295,-0.25958323,-0.013666503,0.17283194,-0.2332223,-0.012223296,0.19913502,-0.22012389,0.11982563,0.3905058,0.36415341,-0.006888709,0.27071157,-0.11194578,0.38364533,-0.14636655,-0.1351565,0.3674284,0.37574637,-0.39734012,0.010535351,0.1278098,-0.26797935,0.19184077,-0.2103697,-0.077984646,0.16846935,-0.052546542
family#F10F198,0.16328204,0.04482441,-0.075567015,-0.024331301,-0.5274159,-0.28551143,-0.107499644,0.3973731,-0.20873225,-0.40432346,0.11170779,0.19878612,0.34884852,-0.23359428,-0.18578856,0.19796494,-0.14162514,0.04790905,0.1478834,-0.23785229,0.18051516,0.23856483,0.18615663,-0.08609245,0.27278024,0.09715733,0.33740082,-0.26218295,0.14060646,-0.16711923,0.22199309,-0.4680655,-0.013452386,0.3218879,0.07299791,0.29764587,-0.21903758,0.045197,0.10622523,0.16911268
family#F10F200,0.16803035,-0.0717442,-0.33006746,0.060359836,-0.061422467,-0.22108288,-0.09016648,0.26349458,-0.31658152,0.29343128,0.14769834,0.13153091,0.44933268,-0.32935277,-0.336304,0.23382048,-0.16859964,-0.16723712,0.031145459,-0.26840824,0.19181864,0.38522518,0.19424586,-0.15929504,0.072142564,0.20102899,0.23006944,-0.32811394,0.20776299,-0.2138856,0.06969229,-0.29550156,0.046672396,0.21037258,0.073056765,0.3194073,-0.24630678,-0.20766304,0.12409703,0.121890984
family#F10F201,0.46916044,-0.117784984,0.014165768,-0.02172534,-0.2210403,-0.49509567,-0.0075773,0.20867777,-0.36120012,0.3447543,0.099083155,-0.124266796,0.45417827,-0.4581643,-0.2049107,0.14816786,-0.25318334,-0.050323192,0.05295202,-0.1644046,-0.13604538,0.27141,0.19731623,-0.2242424,-0.1036969,0.26993746,0.28515905,-0.17364793,0.1424563,-0.28094023,0.09413262,0.020182066,0.03812803,0.24079147,0.14800878,0.31808898,-0.19173114,-0.12503451,0.2713833,-0.092643276
family#F10M171,0.32473126,0.08377582,0.030204542,-0.11873658,-0.2270408,-0.38113427,-0.01051772,0.5732619,-0.3769548,0.07151451,-0.13588822,0.25751278,0.3393297,-0.36191455,0.19332482,0.08533361,-0.14856696,-0.02572956,-0.0065081185,-0.22813535,-0.01704077,0.20457876,0.49449477,0.18552482,0.40020704,-0.10752351,0.2524255,-0.37058532,-0.3373721,-0.43427604,-0.13777058,-0.6390482,0.09963006,0.10310827,-0.018501526,0.35384,-0.057620153,0.053580042,-0.2150126,0.20015746
family#F10M173,0.43124303,-0.09103973,-0.32082054,-0.25746563,-0.30683026,-0.054676265,0.043176666,0.17775644,-0.050120477,0.3274248,-0.04576447,0.08250069,0.31328171,-0.2507053,-0.20054726,0.20785555,-0.29182786,0.08496547,0.06332255,-0.21065624,-0.035750158,0.38150993,0.6644428,-0.050206453,0.16517204,-0.008555164,0.17792013,-0.29067275,-0.533783,0.43381572,-0.12422125,-0.5443019,-0.06092134,0.067335024,-0.23987925,0.17079134,-0.17363407,-0.08585358,-0.19920446,0.040020324
family#F10M176,0.36178684,-0.12095223,-0.1741937,0.17626883,-0.11228591,-0.13665245,0.005185243,0.22671226,-0.23494193,-0.3444369,-0.07546228,0.177948,0.4521162,-0.25483486,-0.29923183,0.33021587,-0.3925382,-0.114086576,0.08935317,-0.32113683,0.25692847,0.19506325,0.36619076,-0.18658696,0.093581006,0.27181408,0.055707958,-0.25316623,-0.033118222,-0.08069764,-0.08140459,-0.3883795,0.06692993,-0.00507709,0.12798463,0.10516155,-0.05111532,-0.119739264,-0.09449343,0.09080187
family#F10M178,0.24105363,-0.12486975,-0.27267855,0.062550634,-0.10613263,-0.11541727,-0.0021465202,0.20775655,-0.248099,-0.3196169,-0.0932385,0.05754381,0.4988347,-0.37229365,-0.15785743,0.20004396,-0.22513887,0.15194017,-0.19683585,-0.343418,0.30312845,0.30525675,0.37519762,-0.12663259,0.1348393,0.17946282,0.16900775,-0.22622986,-0.14415117,-0.062146652,-0.10894075,-0.35721198,0.042389773,0.11557635,0.19064155,0.18423821,-0.1867078,0.15644734,-0.047884278,0.104956284
family#F10M180,0.1745873,0.0061626043,-0.22682507,-0.03733093,-0.1503661,-0.43949127,-0.036449354,0.1986862,-0.2455301,0.15652819,-0.14310673,0.11927122,0.4940996,-0.32558417,-0.24418063,0.24736172,-0.19386448,-0.18035027,-0.08112174,-0.31515086,0.25614536,0.24253884,0.32837486,-0.047766272,0.20206068,0.17653583,0.1536822,-0.41930023,-0.0657806,0.23602898,-0.08367158,-0.46270865,0.043775186,0.18372099,0.009485107,0.11411326,-0.23553568,0.11885199,-0.07765185,0.11478416
family#F10M182,0.10235617,-0.07816968,-0.41370788,0.31480604,-0.3254251,-0.1642683,0.025487296,0.51548177,-0.29962564,0.068062946,-0.10562092,0.040859938,0.39649087,-0.39054787,0.020860672,0.23010449,-0.19582815,-0.29626638,-0.032410502,-0.4364321,0.05271726,-0.01037806,0.66147566,-0.065624714,0.0006132965,0.06531809,0.12724194,-0.07773845,-0.24476561,0.35069925,-0.1146185,-0.39899445,0.07018335,0.010257654,0.07050899,0.24634415,-0.121001735,0.024905482,-0.081748135,0.18693851
family#F10M183,0.43029985,-0.016543904,-0.158539,0.15467861,0.03796264,-0.19066177,0.074799255,0.19943912,-0.0063955253,-0.30168873,-0.06089872,0.13086244,0.48191088,-0.087819144,-0.22962724,0.046541043,-0.32319015,-0.18721984,-0.0015928996,-0.2878722,0.1493703,0.420068,0.6110811,-0.114194535,-0.12921315,0.1544462,0.12495334,-0.10985111,-0.4815183,-0.37960237,-0.20156433,-0.21820481,0.027427493,0.40494725,-0.07801281,0.3176666,-0.2012569,0.10609228,-0.13598204,-0.0909022
family#F10M184,0.51753634,-0.0035479905,-0.17660332,0.1853571,0.022969475,-0.2577496,0.09876767,0.2147323,-0.08918759,-0.3068538,-0.10152829,0.14898439,0.51914907,-0.1919214,-0.2487969,0.105967455,-0.3267021,-0.15165775,0.107870884,-0.20854455,0.15171629,0.39465094,0.6510546,-0.15185915,-0.09537194,0.14101578,0.10377868,0.0010242729,-0.24074538,-0.39083517,-0.2306156,-0.1458705,0.018356122,0.34287184,-0.06534677,0.21946435,-0.10586385,0.27005213,-0.1836341,-0.09217385
family#F10M187,0.09984171,-0.06583583,-0.21103726,-0.13239083,-0.40810513,-0.08280475,-0.0039564986,0.5282047,-0.2735882,0.13051337,-0.15078862,0.18032809,0.45549908,-0.51141226,-0.32457733,0.0647531,-0.21625961,0.15295435,0.235369,-0.3849781,0.045459017,0.0836594,0.47006065,0.20918013,-0.04137993,0.11982422,0.16034853,-0.39297512,-0.15898986,0.16569775,-0.09470923,-0.5282315,0.12380453,0.26473185,0.38461465,0.18584615,-0.20824473,0.25800797,-0.365166,0.23917277
family#F10M188,0.4708083,-0.11828709,-0.16285323,-0.2179861,0.049250223,-0.04924779,0.03752261,0.12855361,-0.09794251,-0.21567741,-0.1538123,0.081480384,0.4454388,-0.5236178,-0.41295552,0.03408028,-0.24240257,0.2152563,0.19402532,-0.3118549,-0.054677486,0.35426843,0.35646942,0.088328615,-0.09407065,0.1991895,0.13280784,-0.27058837,-0.33755052,-0.072809026,-0.25862193,-0.13831072,0.094061986,0.30632478,0.31611708,0.34967703,0.016511796,-0.13827129,-0.27036807,-0.04278842
family#F10M190,0.42674085,0.030426566,-0.24104905,-0.18399881,0.13689639,-0.17540045,0.040148143,0.14169845,-0.06168883,0.13286608,-0.097358175,0.14222583,0.51282793,-0.43782705,-0.3842307,0.046577025,-0.2936435,-0.10896695,-0.0141659565,-0.33226535,0.15742244,0.056274097,0.2316941,-0.2561205,0.2053465,0.2656559,0.10607316,-0.16516182,-0.1155844,-0.17030904,-0.16367154,-0.3290169,0.036036205,0.2250907,0.42691827,0.17984207,-0.27298048,0.19288586,-0.098024264,-0.046713084
family#F10M194,0.08048138,0.0006024432,-0.21690167,-0.05974302,0.018463809,-0.3602164,-0.0072111525,0.2553594,-0.29484206,-0.14703658,-0.1470009,0.15674357,0.49443844,-0.389648,-0.2911437,0.14000459,-0.12468278,-0.17035532,0.15965545,-0.37371263,0.26991948,0.29152665,0.3519572,-0.03795316,-0.03027033,0.18990666,0.19107185,-0.34409416,-0.22729011,-0.08201565,-0.025461886,-0.38322788,0.084894985,0.21036343,0.28157815,0.18394744,-0.2659015,-0.0587389,-0.15544425,0.10904945
family#F10M196,0.15152079,-0.1613833,-0.33555368,-0.043144558,-0.08506211,-0.6202328,-0.0028125825,0.36678287,-0.33180848,0.1300424,-0.20869993,0.023488007,0.42969114,-0.40560153,0.003034553,0.12733923,-0.20521046,0.049494024,0.08615316,-0.3167061,-0.07559324,0.17476003,0.22215447,0.00053963356,0.50630176,-0.08585784,0.23659913,-0.2426166,-0.0036720603,0.28212297,-0.0960331,-0.3433274,0.046200812,0.04124208,0.08976831,0.27257133,-0.09675148,0.16678011,-0.24792935,0.20766911
family#F10M197,0.36256114,0.13884197,-0.0682321,-0.13635902,-0.5425267,-0.395606,-0.0047568576,0.39935678,-0.076582685,-0.4086893,-0.14013183,0.2157279,0.47906297,-0.25766414,-0.18050204,0.14147706,-0.0999581,-0.02566553,0.13178152,-0.30571765,0.15174976,0.24124147,0.16962913,-0.10449698,0.28906244,-0.05416916,0.32332104,-0.22808234,0.10136438,-0.20512858,-0.25059643,-0.21473806,0.042489495,0.29680946,-0.061297886,0.28416446,-0.27130795,0.121302,-0.14401904,0.016249381
family#F10M199,0.4830563,-0.091869995,0.010808528,0.003565242,-0.23349282,-0.24625215,0.052717797,0.11448115,-0.0017556741,0.43207532,-0.06306438,-0.012008835,0.5038681,-0.488633,-0.3454161,0.24466483,-0.20998119,0.3012147,0.07701713,-0.31026563,-0.11113258,0.22277062,0.20538092,-0.243805,-0.14339587,0.14975512,0.32908392,-0.1055628,0.0108432425,-0.30326906,-0.21632461,-0.23934574,-0.02235531,0.2831637,0.07966345,0.21956475,-0.2430046,0.24648598,-0.16250251,-0.04098079
family#F10M202,0.121199824,-0.06776743,-0.26691464,0.032101627,-0.038508132,-0.40241942,-0.0014407225,0.16845587,-0.20264527,0.18517913,-0.08250027,0.34735906,0.44893646,-0.31533924,-0.19992435,0.24323496,-0.21522337,0.122617714,0.07041044,-0.34655115,0.21403772,0.25126594,0.14542371,-0.22307055,0.09122213,0.2974482,0.2745246,-0.29191133,0.106703825,-0.15869398,-0.08905905,-0.46818268,0.039866842,0.18448818,0.14188816,0.14727594,-0.24118784,0.14596567,-0.11055162,0.14781809
family#F1F2,0.22044846,0.19531457,-0.10508853,0.22622043,-0.3191908,0.016706403,-0.06992524,0.343778,-0.29482606,-0.13222253,0.027754815,0.02014624,0.41495022,-0.22039245,-0.17817444,0.16976658,-0.31479675,0.04369271,0.24351998,-0.3120509,0.23421411,0.45261446,0.38769194,-0.32629177,0.33667544,-0.08726827,0.21718656,-0.13829064,-0.053167623,-0.09100044,0.29171214,-0.123931155,-0.042376827,-0.0024902646,0.28231904,0.39029467,-0.0028595133,-0.18795587,0.06590412,0.13364615
family#F1F3,0.40776122,-0.37086508,-0.14174084,0.33872047,-0.47649348,0.08881092,-0.025131492,0.33292577,-0.06603551,0.22886863,0.116382934,0.05849651,0.41713235,0.05496293,-0.22578117,0.17882228,-0.383664,-0.21340416,0.31458005,-0.28260013,0.20359498,-0.007915362,0.43017545,-0.443311,-0.049696207,0.23451735,0.21532437,-0.19783248,0.03581883,-0.16386648,0.25051442,-0.38596892,0.05137788,0.17822246,0.26491183,0.21453945,-0.1179271,0.32362285,0.25525582,0.012233308
family#F1F5,0.33277994,0.22232021,-0.012218808,0.55390733,0.097850986,-0.13759162,0.052874953,0.24707389,-0.22036596,-0.100613825,0.12226067,0.24633515,0.42909643,-0.29520127,-0.18605895,0.080447,-0.40003273,-0.29596335,-0.13636105,-0.1385103,-0.15499847,0.31569704,0.5563677,-0.2752593,-0.18612678,0.36708373,0.38419023,-0.29291174,-0.26763004,0.14513409,0.12827064,0.10812926,0.13311893,0.25407028,0.13122818,0.26176244,-0.2217424,-0.014443548,0.24958454,0.010368191
family#F1F7,0.4279698,0.2279578,-0.3930161,0.53431356,0.0803925,-0.25063246,0.043264717,0.34678608,-0.26242134,-0.060436916,0.021365756,0.21400908,0.4121875,-0.34846187,-0.19233368,0.19008756,-0.47993577,0.15277803,0.3437818,-0.20453082,0.05307015,0.3084865,0.4674062,-0.22941214,-0.2028729,0.35585895,0.27902392,-0.1777218,-0.09682274,0.17092155,0.13032086,0.22677965,0.12200446,0.31994858,0.22048031,0.16298667,-0.071836814,0.36461952,0.2831115,-0.07933081
family#F1M1,0.36503416,0.18787521,-0.21882264,0.14135143,-0.29472747,-0.033017367,0.066009924,0.27211148,-0.32649806,-0.10767481,-0.08527991,-0.0320976,0.41820943,-0.08914319,-0.18010104,0.32886076,-0.20788322,-0.23150797,0.139969,-0.49947235,-0.21188517,0.46089026,0.29229838,-0.3740119,0.3593787,-0.01475117,0.15933882,-0.25545692,-0.12213049,-0.116317995,0.041785464,-0.18882447,0.013522125,0.0058392826,0.2971682,0.19358407,-0.25971293,0.17612712,-0.25145903,0.17394578
family#F1M4,0.20540185,-0.36743388,-0.18871763,0.31373507,-0.49135205,0.0773838,0.056036916,0.3825899,-0.2142287,0.19322851,-0.11236921,-0.052541167,0.35476306,-0.4093132,-0.21032041,0.16830838,-0.3726702,-0.020709299,0.24667096,-0.44697827,0.07837367,0.0984438,0.48479542,-0.2991128,-0.087048545,0.21015987,0.35655653,-0.304174,0.080040365,-0.16708547,-0.08006023,-0.28223917,0.07204827,0.12262228,0.27662578,0.16577582,-0.0641538,-0.19286321,-0.13842864,0.1742669
family#F1M6,0.27109075,-0.01139724,-0.3590114,0.25642768,0.042166952,-0.28246334,0.081881605,0.1001709,-0.31101108,-0.076700956,-0.10602911,0.005713487,0.46791443,-0.32789323,-0.14287846,0.20872839,-0.27878058,0.26723653,-0.08032288,-0.40731853,0.22911236,0.38135573,0.33576775,-0.15396719,-0.05357243,0.33691022,0.37036446,-0.256711,-0.11967516,0.057809845,-0.023742909,-0.4146731,0.06404411,0.15347587,0.19023828,0.10166707,-0.20107786,0.01403241,-0.13352443,0.19453466
family#F1M8,0.18894218,0.08653984,-0.20014222,0.19519387,0.08761919,-0.39889205,-0.0044055283,0.18017557,-0.123326905,-0.056052953,-0.119356744,0.088276885,0.41806716,-0.32267395,-0.216464,0.1983497,-0.5405137,-0.004396662,0.14431296,-0.39203045,0.11785972,0.42849118,0.31870842,-0.23775329,-0.118341096,0.23366664,0.24700195,-0.22814304,0.031330094,0.11900573,-0.032062855,-0.60149574,0.05875526,0.23640442,0.12755962,0.17368868,0.015966957,-0.3030639,-0.100105286,0.12450672
family#F2F10,0.2993213,0.11567326,-0.05625613,0.051696043,-0.5404605,-0.28858683,-0.0771398,0.45426846,-0.3005671,-0.12755232,0.1843397,-0.25533307,0.3304118,-0.1405911,-0.86247903,0.20514429,-0.01763854,0.039541807,0.22712956,-0.2269063,0.19218834,0.17409171,0.23099901,-0.17123057,0.17669436,-0.26726246,0.388333,-0.41938457,0.1782569,-0.17392762,0.32803532,-0.30942863,-0.19341448,-0.07131245,0.4106828,0.3462866,-0.28276637,0.061733656,0.014357603,0.090112045
family#F2F12,0.18111518,-0.051428977,-0.30223086,0.17392476,-0.2078518,0.22113483,-0.05323157,0.6119322,-0.26712698,0.08849788,0.08160238,0.18110743,0.34868953,-0.11801268,-0.3125951,0.29527265,-0.090633266,0.26410973,0.19455314,-0.22984056,0.10489603,0.2825806,0.4992967,-0.40018585,-0.17721586,-0.13022476,0.39594656,-0.2748989,-0.17997183,0.20821562,0.3287489,-0.41384414,-0.10519478,0.1270661,0.3562829,0.19357842,-0.21631053,0.094988056,0.11854238,0.15147325
family#F2F14,0.16321954,-0.060788024,-0.2141916,0.22201365,-0.03936124,0.04517192,-0.037512917,0.21047461,-0.28167415,-0.0817602,0.16586037,0.1699238,0.43529156,-0.2761738,-0.3738806,0.17640647,-0.17834362,-0.42690203,-0.12679593,-0.3826891,0.15786435,0.34022933,0.31472886,-0.23089969,-0.016809586,0.19758542,0.33672553,-0.29667076,-0.05307989,-0.18416026,0.10773456,-0.41123506,-0.030189715,0.3300907,0.16091603,0.1400974,-0.19453184,0.08373818,0.19476116,0.138939
family#F2F15,0.53995275,0.093729325,-0.2923926,0.40294418,0.16815992,0.12762316,-0.0075868256,0.39419195,-0.18710738,-0.14858933,0.22448541,-0.090634406,0.34905797,-0.24776188,-0.22571798,0.15432829,-0.07840824,0.0031679773,0.42664742,-0.1212289,0.15266238,0.15360767,0.46889216,-0.41613862,0.0010281701,0.34112018,0.45641625,-0.110545896,-0.3063042,-0.2745055,0.27556288,-0.08420658,0.01668814,-0.026228284,0.25174773,0.35288796,-0.20114297,-0.17705442,0.2785248,-0.063441664
family#F2F17,0.3943048,-0.15493457,-0.31447282,0.42959005,0.107687965,-0.14733101,0.001548322,0.26773232,-0.27485883,0.28812283,0.15200932,0.17971969,0.48582974,0.06941483,-0.23446459,0.17494424,-0.24504992,0.11104823,0.17322876,-0.11506052,-0.054509837,0.21557006,0.4098339,-0.32206547,0.37584183,0.39127693,0.18917136,-0.073967114,-0.3094344,0.07025401,0.106111996,0.04196328,0.039614324,0.38058245,0.1865351,0.12401733,-0.214441,-0.13542312,0.27650043,-0.10864562
family#F2F19,0.4286561,-0.0994857,-0.12643011,0.065196656,-0.11410055,-0.19184428,0.027709166,0.4303415,-0.25321034,0.26836458,0.12164109,0.3020721,0.26537436,0.086254254,-0.39805955,0.28164366,-0.031276252,-0.07740026,0.30138016,-0.070269406,0.20327978,0.22236778,0.18176425,-0.26428834,-0.10646338,-0.107980356,0.56935596,-0.1401428,-0.17463218,-0.14644526,0.30719024,0.118889816,-0.23235501,0.105826035,0.66508037,0.34171027,-0.33940038,0.13385075,0.19835159,0.02349387
family#F2F22,0.21978232,-0.09296572,-0.67566437,0.13141394,0.028461538,-0.5512132,-0.09282424,0.50013405,-0.20645541,0.007936246,0.08120889,-0.1197302,0.39099336,-0.25205117,-0.09677028,0.21242926,-0.18445276,-0.25651893,0.24943663,-0.20319274,0.22567087,0.29698288,0.20891242,-0.08845237,0.12596013,-0.04504659,0.19253816,-0.23070537,-0.06914016,0.24839652,0.33515435,-0.24530058,-0.040021192,0.053773113,0.2823152,0.23805898,-0.28270346,0.2196304,0.1225649,0.18684936
family#F2F24,0.2727674,0.028731942,-0.44128978,0.07497897,-0.03444957,-0.408376,-0.110999115,0.4560469,-0.2989088,-0.13774125,0.13480893,0.058028344,0.37533686,-0.33049515,-0.062807046,0.20336425,-0.1116456,0.0065417574,0.16432981,-0.3016421,0.13397497,0.39090687,0.07629299,-0.278968,0.27005798,0.13333172,0.05453794,-0.12179046,-0.103485,-0.25948864,0.24831232,-0.28042018,0.014280167,0.0063711912,0.107214555,0.34178364,-0.121291414,-0.25091177,0.08739495,0.13206762
family#F2F26,0.28755236,-0.10387687,-0.09293491,0.09138939,-0.074136704,-0.17156942,0.07044983,0.27444175,-0.36932904,0.19598691,0.03604793,0.27167428,0.27903172,0.12542038,-0.6764907,0.24743967,-0.008585106,0.2864317,0.029706474,-0.19581339,-0.07632646,0.3879606,0.28722173,-0.36218777,-0.13116325,-0.007111187,0.46827567,-0.24625082,-0.21122792,-0.01739949,0.027368747,0.20768473,-0.17264554,0.2336572,0.60040015,0.42295656,-0.24124247,0.42484996,0.25409642,-0.032339614
family#F2F28,0.2963661,-0.33423835,-0.050794892,0.07434362,-0.069551356,-0.14800672,-0.011230305,0.47139606,-0.23125136,0.13506983,0.14220811,0.29568174,0.33543774,-0.04164037,-0.6125871,0.29048485,-0.07961641,-0.34968737,0.12742783,-0.23692784,0.074430875,0.09380978,0.23370755,-0.22166386,-0.12814468,-0.22990787,0.5258367,-0.04137669,-0.062167022,0.05496978,0.30865723,0.048189174,-0.18280526,0.010827122,0.63145775,0.32653305,-0.24954462,-0.07026304,0.20962307,-0.011427036
family#F2F30,0.44376978,0.3036907,0.021333512,0.06376685,0.1417495,0.0561143,-0.10256241,0.33489484,-0.017818434,-0.05864828,0.20332174,0.11794419,0.42450866,-0.22494355,-0.089746356,0.13291419,-0.44542605,0.5520599,0.059585493,-0.10006154,0.30800384,0.4197801,0.19502127,-0.11679235,0.47320288,0.09911946,0.1611677,-0.10564061,-0.2937428,-0.2682692,0.32481954,-0.097178,-0.033185624,0.2879834,0.57906115,0.25131693,-0.2574323,-0.23768523,0.21294592,-0.040231876
family#F2F33,0.28543225,-0.30809867,0.17387253,-0.04058595,-0.39363158,-0.057928856,-0.0038860124,0.20536399,-0.14818543,0.25682753,0.21083611,-0.035237014,0.4028233,-0.5279683,0.07055821,-0.00017030732,-0.67538273,-0.01196223,-0.090497755,-0.22081809,-0.10958712,0.19622865,0.36073565,-0.22087169,0.103406794,0.37346286,0.059629023,-0.121751055,-0.22971247,0.055549387,0.27459666,-0.12006024,-0.02257056,0.18784387,0.23189521,0.34910253,0.04162853,0.5297393,0.29973242,-0.09441339
family#F2F36,0.41699994,-0.1338263,-0.037936557,0.071015626,-0.12026531,-0.104766,0.08238392,0.3095041,-0.31495702,0.27398863,0.19316514,0.28528428,0.3095042,0.006460576,-0.6326081,0.3181079,0.0013560333,-0.023409022,-0.12224251,-0.19938421,-0.20031235,0.25873753,0.2440617,-0.15027818,-0.13196781,-0.019540858,0.5370905,-0.19985688,-0.2387973,-0.032978605,0.20230658,0.14230958,-0.14485025,0.052405592,0.6621166,0.28160846,-0.23527017,0.024478562,0.26924953,-0.001372998
family#F2F38,0.41316167,0.031296406,-0.020444835,0.123518616,0.17999029,-0.37237304,-0.05860792,0.37070903,-0.12590028,-0.19587335,0.08792967,0.0517354,0.48304084,-0.30948767,-0.5331416,0.16462249,-0.124619626,0.115309246,-0.17368594,-0.14745459,0.24237749,0.22405954,0.30928195,-0.16964163,0.11694422,0.3874879,0.13914298,-0.15474051,-0.34184968,0.27191257,0.052196406,0.013190186,-0.015568787,-0.03668371,0.5656901,0.24880254,-0.32250208,-0.2845467,0.30862027,-0.02831485
family#F2M11,0.41020125,-0.15614446,-0.06409687,0.061644632,-0.15798464,0.043373335,0.17147073,0.50202364,-0.11393999,0.15943958,-0.20159282,0.2568571,0.2677025,0.0030644718,-0.2756221,0.21045426,-0.061475463,0.032024205,0.12684555,-0.44025385,0.13216145,0.3310644,0.4884703,-0.42412314,-0.2607408,-0.23649119,0.66641307,-0.022984022,-0.16715956,0.15155272,-0.112710096,0.10767228,-0.22195278,0.058993418,0.63313067,0.37021798,-0.2292735,0.08965225,-0.35917145,0.12497771
family#F2M13,0.4140568,-0.0017006063,-0.4059007,0.3007501,0.18745515,0.13450287,0.05926704,0.18624762,-0.06089248,-0.11701316,-0.17357486,-0.046496138,0.38705817,-0.16151004,-0.41154328,0.1768586,-0.077608354,0.57475394,-0.2213843,-0.3395595,-0.05577734,0.15655811,0.57897913,-0.5098447,-0.01757179,0.21603619,0.3306634,-0.31378672,-0.34658608,-0.20139065,-0.25738314,-0.13045685,-0.09899801,0.35405254,0.1828888,0.28197718,-0.40404034,0.030949129,-0.119316824,-0.08779435
family#F2M16,0.13461898,0.05045753,-0.2955473,0.28748634,-0.013867483,0.09180288,0.0089831995,0.56813717,-0.27487662,-0.120215744,-0.1442597,-0.021248491,0.3528493,-0.165414,-0.21680216,0.1556015,-0.1891573,0.17161323,0.12322982,-0.42414927,0.12714836,0.25089952,0.4361027,-0.31940174,0.040823247,0.3309444,0.2668474,-0.18779726,-0.15229154,-0.2339321,-0.13857517,-0.3385158,0.07090737,-0.030296544,0.3064211,0.2049282,-0.13064474,0.104359075,-0.1385365,0.24656333
family#F2M18,0.48111856,-0.11770392,-0.121288896,0.3029412,0.13162078,-0.134108,0.17063968,0.23184885,-0.016899439,0.3006423,-0.012049712,0.22810754,0.4210842,0.07782355,-0.23785281,0.08622579,-0.41271648,0.14543058,0.04037788,-0.3583085,-0.031958174,0.33559814,0.36700547,-0.35752743,0.30243626,0.32386357,0.18157573,-0.060836427,-0.3599795,0.079434074,-0.13390474,0.00885343,0.103619546,0.35966787,0.15272301,0.26696143,-0.06692275,-0.065947145,-0.20742916,-0.084929
family#F2M20,0.16492765,-0.042063776,-0.39684469,0.06550154,-0.110246934,-0.28790095,0.004519323,0.45018983,-0.26009774,0.19163479,-0.1797696,0.11101786,0.34625667,-0.26556915,-0.294741,0.1900283,-0.12401649,0.16547523,0.16416375,-0.31985262,-0.013475387,0.08084759,0.18634503,-0.18383293,0.015957672,0.07128361,0.22658029,-0.14324287,-0.07233559,-0.16384886,-0.004223016,-0.36138314,-0.09714768,0.078380845,0.4136672,0.25136223,-0.21905242,-0.054837756,-0.30377713,0.20737715
family#F2M21,0.46498263,0.008608295,-0.18380176,0.06339791,0.1490989,-0.53775704,0.12357913,0.35193974,-0.042350933,-0.004922441,-0.12554932,-0.1875638,0.3637723,-0.15970513,-0.105065845,0.17328791,-0.11514043,0.11986111,0.2103603,-0.41931972,-0.29816905,0.35949063,0.16992065,-0.31037712,0.14340626,0.14959183,0.22345248,-0.23787057,-0.17294776,0.20933022,-0.16135122,-0.23889679,-0.059207436,0.0017711758,0.38970444,0.21180388,-0.18484847,-0.15865324,-0.2901731,0.021640724
family#F2M23,0.37151346,0.021073688,-0.4339565,0.06645795,0.048323363,-0.49214798,0.052571356,0.24423887,-0.05942628,-0.20706335,-0.0961507,0.27366227,0.4452148,-0.06672009,-0.053376056,0.1370602,-0.052804623,-0.11092688,0.20799053,-0.45023733,0.103605926,0.16547157,0.044960655,-0.31598616,0.32822675,0.08030799,0.07474432,-0.16467525,-0.15673831,-0.33491483,-0.22252175,-0.31884405,0.011860813,0.099769056,0.16157043,0.25635913,-0.22820191,0.3731229,-0.15532851,-0.02075498
family#F2M25,0.41921413,-0.091561474,-0.12971282,0.09867853,-0.23116675,-0.50049853,0.045471456,0.23576485,-0.02753032,0.32303405,0.02465794,0.002765877,0.6027648,-0.14832474,-0.33641118,0.17655054,-0.1777285,0.07704374,0.11602255,-0.42619622,0.13961636,0.21287231,0.01830762,-0.37199783,0.51713204,0.1706257,-0.07183334,-0.14283656,-0.34124258,0.025868524,-0.08619384,-0.14623915,0.040884916,0.13042152,-0.009319913,0.21351577,-0.26284313,0.07279719,-0.13907471,-0.07157647
family#F2M27,0.2877807,-0.055646554,-0.26379216,0.14084119,0.018239899,-0.081719495,-0.00085720717,0.24544764,-0.26426777,0.12837668,-0.015382588,0.051992957,0.508189,-0.38460484,-0.5807824,0.32359195,-0.076248735,-0.2041678,0.021241114,-0.32609418,0.23198843,0.16023855,0.23917988,-0.22512776,-0.013379684,0.19917707,0.22945487,-0.30640164,-0.061182823,-0.059815332,-0.053500947,-0.43810195,-0.029989136,-0.009965531,0.22593401,0.11725851,-0.17188512,-0.28639293,-0.12732655,0.10022779
family#F2M29,0.22536966,-0.40373394,-0.16647328,0.118437596,-0.11255595,-0.14113149,-0.010229389,0.38284278,-0.25071308,0.029328305,-0.22111155,0.0414254,0.3740614,-0.29065543,-0.42090273,0.16765633,-0.21711376,0.3999963,0.1892067,-0.3798987,-0.1334971,0.0153798,0.19257367,-0.118221335,0.054022383,-0.028885791,0.18723293,-0.41493055,-0.03700959,0.06976431,-0.040666763,-0.37950137,-0.019642327,0.023256464,0.44373518,0.35145223,-0.033099245,0.25263306,-0.26680776,0.20808688
family#F2M31,0.2539856,0.21780355,-0.16844513,-0.012094773,-0.07948199,0.07724488,-0.0077557834,0.42586097,-0.21366915,-0.042776413,-0.12254421,0.1826783,0.45438173,-0.3560438,-0.049062613,0.13587205,-0.5481044,-0.42298642,0.15513818,-0.4400271,0.0017372052,0.3609936,0.1600261,-0.09850769,0.47802198,0.084626846,0.021342626,-0.10210595,-0.09375851,-0.2352475,-0.14250027,-0.47711653,-0.047043104,0.22942217,0.43312505,0.23370385,0.049505293,0.16207448,-0.2936374,0.26399836
family#F2M32,0.4914944,-0.36998814,0.11227041,-0.06299109,-0.38113979,-0.1833213,0.07781106,0.17146787,-0.052185517,0.1908263,-0.05696356,0.010585605,0.40869805,-0.41944113,-0.018090801,0.13698694,-0.62899315,-0.34954166,0.3649366,-0.3573188,0.07711854,0.10146935,0.31631634,-0.20024991,0.20298979,0.27715337,0.037565827,-0.012251068,-0.22584009,0.10578226,-0.2131271,-0.22513205,-0.050030373,0.39573422,0.19529636,0.13431713,-0.13103141,0.31529936,-0.23006761,-0.10103365
family#F2M34,0.2912344,-0.18315737,-0.20461063,0.07038607,-0.13829951,-0.031177754,0.037950616,0.32275036,-0.17483301,0.20372273,-0.13689119,0.0046081236,0.33215895,-0.32049638,0.08768401,0.35644037,-0.62360936,0.027300002,-0.1412988,-0.44742337,0.054771613,0.33649015,0.40687975,-0.18476397,0.09580856,0.26824987,0.14982575,-0.25063205,-0.11840551,0.015227386,-0.15294486,-0.3500136,0.029950777,0.27451098,0.26197207,0.090779066,-0.112691924,-0.39234,-0.13020816,0.21554759
family#F2M35,0.45487466,0.2022422,-0.2826629,0.18704759,0.09854438,-0.41770503,0.098188184,0.26731324,-0.009318694,-0.23352551,-0.06968909,0.20478728,0.40714753,-0.36665213,-0.07372073,0.05538892,-0.6587677,-0.014438887,0.11355815,-0.34582624,0.18357207,0.12301027,0.4456681,-0.31552184,0.24158892,0.36978778,0.03068988,-0.06644309,-0.21897458,0.12064948,-0.13755047,-0.34530616,0.023275474,0.2813481,-0.026161365,0.2530099,-0.04806189,0.07295609,-0.16708039,-0.048509065
family#F2M37,0.13408655,-0.10582455,-0.11123864,0.097499155,-0.1181891,-0.13514444,-0.0052028103,0.38741204,-0.30360326,0.29290617,-0.12579511,0.02865234,0.4377892,-0.15303105,-0.55538416,0.18543182,-0.10762557,0.092966124,-0.14106844,-0.44822562,-0.14842702,0.1672743,0.24518307,-0.13114296,-0.036705267,0.1572417,0.17088892,-0.34212944,-0.14878815,-0.06511413,-0.18303986,-0.57612604,-0.0019379363,0.05777121,0.35491645,0.22756836,-0.19705305,0.08580189,-0.1083114,0.14870228
family#F2M39,0.2579851,-0.05516845,-0.26283848,0.047487367,-0.028298486,-0.38000348,0.06577243,0.2614492,-0.2863511,-0.1907874,-0.08721094,0.13845721,0.4224573,-0.16903745,-0.47360474,0.2205292,-0.19050555,-0.107244074,-0.14206855,-0.4365444,-0.13342212,0.26694986,0.306835,-0.20910858,0.013601814,0.22154875,0.03811861,-0.29667008,-0.09340038,0.23884958,-0.06930713,-0.40803385,0.027455503,0.03797459,0.23422506,0.16499689,-0.16742891,0.29131976,-0.04080273,0.0841042
family#F2M9,0.4459615,0.112920985,-0.0615993,0.08048332,-0.5506882,-0.2822642,0.08021736,0.47312894,-0.40121242,-0.13629758,-0.17388265,-0.24065511,0.272315,-0.2528866,-0.8193914,0.30952048,-0.046103273,0.008014509,0.25212795,-0.40748936,-0.1999295,0.13420697,0.19257295,-0.1620995,0.16045204,-0.09972529,0.37717295,-0.3426026,0.17875837,-0.207747,-0.07614118,-0.34641707,-0.19744569,-0.10613799,0.49588624,0.16652648,-0.0714532,7.483643e-05,-0.3236644,0.18402533
family#F3F41,0.43002152,-0.23273234,-0.22515467,0.07117382,-0.0417289,-0.030084701,-0.08632149,0.18831693,-0.21320386,0.08063386,0.15857674,-0.089416906,0.42051524,-0.18135498,-0.3773601,0.22021477,-0.3171508,-0.06555248,0.28116286,-0.22492611,0.20797403,0.26054707,-0.09661158,-0.32113197,0.3851745,-0.1376766,0.33541086,-0.38013542,0.113152295,-0.022376193,0.35982025,-0.19431016,-0.0030725228,0.06073748,0.23496103,0.2893039,-0.2686129,0.13250731,0.065685354,0.11302905
family#F3F42,0.45391002,0.25534168,0.10892124,0.2305904,-0.1371409,-0.018887032,-0.085271396,0.31082645,-0.101710714,-0.027438285,0.18936354,0.18488789,0.48543337,-0.05256929,-0.31836444,0.14738737,-0.25689736,0.0041149226,0.06994353,-0.18592937,0.15539524,0.28208566,-0.24220113,-0.3392616,0.4979756,0.067138106,0.44264966,-0.12453005,-0.14027065,0.029883577,0.2914325,-0.2086914,-0.057970673,-0.01882088,0.3575628,0.30872846,-0.1504748,0.31824824,0.22341052,0.043726925
family#F3F46,0.19167773,-0.29437137,0.038481362,0.28903383,-0.07316725,-0.18177965,-0.06979945,0.24630657,-0.10712391,0.02671279,0.123478316,0.119131155,0.40379816,-0.17172018,-0.12872104,0.2213566,-0.44456637,0.23926672,0.16098309,-0.23878498,0.22241779,0.07871694,0.13029666,-0.27555957,0.4041395,-0.08002176,0.33022228,-0.41557345,0.19179541,0.0902081,0.30485812,-0.279788,-0.06948755,0.048729114,0.25622404,0.2787855,-0.16842064,0.16671655,0.071430035,0.13937892
family#F3F48,0.17136419,0.20469269,0.16309285,0.0291053,-0.22170514,-0.13669027,-0.1247101,0.46708986,-0.10467196,-0.15534598,0.15179606,0.04979261,0.40073532,-0.2817566,-0.18298508,0.17922978,-0.3770596,0.10035955,0.11761333,-0.20206459,0.16369314,0.51770395,0.2804129,-0.13551849,0.2877124,0.0052370457,0.3158745,-0.22939643,0.35437432,-0.2142336,0.32249615,-0.3080295,0.07682131,0.29470518,0.2720432,0.24654062,-0.17797053,0.34971982,0.116912514,0.18995745
family#F3F49,0.22997461,-0.33061987,0.11735339,0.022834545,-0.22592078,-0.22006933,-0.07352963,0.23756325,-0.116089724,0.25547156,0.16457154,0.14221728,0.50076145,-0.35256007,-0.19039343,0.03414618,-0.3576661,0.21116695,-0.027384138,-0.12483705,0.001584426,0.041034266,0.25375342,-0.15163004,0.16659655,0.20228165,0.20532441,-0.12825,0.06315521,-0.08406216,0.2520516,0.012683421,0.052442938,0.41245934,0.28523633,0.34854338,-0.20075437,0.15145425,0.28701258,-0.076097265
family#F3F52,0.34013718,-0.25416234,0.22892419,0.0043864916,-0.22260937,-0.35197794,-0.0049492554,0.354225,-0.34657812,0.2676739,0.04112215,0.19450843,0.5126746,-0.42111132,-0.27735347,0.17889032,-0.44720817,-0.06381424,0.21780525,-0.15091008,-0.054445703,0.08353933,0.5075007,-0.14766504,0.10681,0.20510784,0.32713786,0.023981798,0.14393052,-0.0490394,0.116174944,0.039271083,0.025341146,0.38224906,0.17975523,0.07383638,-0.09779119,-0.1629171,0.2592368,-0.092727065
family#F3F53,0.34970567,-0.23898064,0.46488968,0.25933215,-0.3183384,-0.1899021,-0.011455558,0.2460992,-0.30408496,0.011567514,0.11740428,0.05015781,0.41257572,0.055399846,-0.33093774,0.20439644,-0.4684533,-0.115022846,0.20179543,-0.1805976,-0.07485954,0.1620077,0.03865841,-0.3349236,0.3992663,0.24878688,0.45142227,0.0471956,-0.37226674,-0.122568615,0.08371978,0.028667688,-0.075467125,0.34911767,0.368792,0.23661591,-0.08556234,-0.09129712,0.25710225,-0.08338469
family#F3M40,0.27325666,-0.2303888,-0.31187332,0.19892769,-0.058571577,-0.043683965,0.048622128,0.21248561,-0.33265483,0.06514549,-0.18965203,-0.046411924,0.4718276,-0.178934,-0.35062364,0.21689744,-0.34427214,-0.08511397,0.217364,-0.42453253,-0.120599374,0.31545976,-0.08954905,-0.13082008,0.35401213,-0.112228215,0.36384484,-0.35093397,0.10151284,-0.029729694,-0.03808356,-0.21409918,-0.04189571,0.0305121,0.22062212,0.2514996,-0.1949754,-0.05182799,-0.26117986,0.13149622
family#F3M43,0.29921007,0.21676837,0.064389996,0.29489994,0.021373592,0.041648865,-0.019028254,0.5068624,-0.2505117,-0.039877888,-0.16571876,0.10909767,0.36821845,-0.25943986,-0.34900832,0.19511569,-0.3811786,0.08434643,0.020386552,-0.33291736,-0.075269565,0.33422467,-0.23317634,-0.3555778,0.53624094,0.08236972,0.38316992,-0.218856,-0.09322364,0.03012607,-0.07663615,-0.28755847,-0.041753642,-0.05893165,0.24998963,0.27054062,-0.08174206,-0.2666356,-0.28230056,0.1972913
family#F3M44,0.33699974,-0.24029562,0.4583136,0.23992437,-0.32115042,-0.09777153,0.053861998,0.16117686,-0.097762294,-0.00847175,0.09000642,0.08333075,0.36519665,0.072236516,-0.38622403,0.22051269,-0.5117157,0.1330368,0.007335787,-0.35344896,0.17245606,0.2240744,0.0926176,-0.29266626,0.4052292,0.19936407,0.3505831,-0.005301454,-0.4388747,-0.1211301,-0.25429463,0.04948568,-0.015158768,0.19070618,0.2687219,0.34746268,-0.058079027,0.19288228,-0.15921669,-0.097379364
family#F3M45,0.43415943,-0.19312263,0.44304132,0.27154806,-0.29045603,-0.15002094,0.10116035,0.135117,0.06465296,0.008757915,0.03097604,0.09199175,0.3150805,-0.053875465,-0.12514971,0.15864944,-0.65081596,0.1959091,0.16596921,-0.32406837,-0.17444123,0.19142398,0.11237298,-0.3211799,0.6512997,0.1703982,0.46905842,-0.21513726,0.0036703553,-0.027264807,-0.21964213,0.0966529,-0.12112261,-0.0017762803,0.34089908,0.38552684,0.03409094,0.03678003,-0.31593272,0.01779094
family#F3M47,0.40247238,0.25859046,0.26157025,0.30338442,-0.35339397,-0.20558923,0.039965793,0.3111856,-0.030842943,-0.1511053,-0.18701375,0.022066412,0.44421172,-0.19318561,-0.18957373,0.15887961,-0.38020235,0.04650282,0.15085903,-0.35488838,0.124359034,0.4139965,0.27435127,0.08393478,0.42432642,0.09417214,0.5210567,-0.06899374,0.25700957,-0.20895162,-0.16134045,-0.30889302,0.04677533,0.13038236,0.20077279,0.18559682,-0.042656735,-0.27743465,-0.3324346,0.081089295
family#F3M50,0.2553324,-0.25817326,-0.18102148,0.12002314,-0.11658117,-0.17580365,0.011338569,0.11653159,-0.18359283,0.20376685,-0.092258826,0.035713717,0.38318565,-0.29794726,-0.20628129,0.26269984,-0.35589197,-0.023151016,0.01353887,-0.44421482,-0.1641279,0.21146894,0.13168746,-0.005968775,0.4682026,0.22338706,0.28341067,-0.32702157,0.12323661,-0.1157568,-0.077124745,-0.3443944,0.029451765,0.26017466,0.23423226,0.15194874,-0.10568004,-0.12523054,-0.14289679,0.19238168
family#F3M51,0.3714758,0.20532206,-0.0061150137,0.031692203,-0.15561692,-0.40536347,0.047892027,0.23136161,-0.014351471,-0.10523628,-0.029398434,0.06513904,0.5988741,-0.39508078,-0.26527345,0.072195716,-0.43058077,0.02224665,0.0774431,-0.3094224,0.2251018,0.34602046,0.23058075,-0.1746802,0.30098057,0.24266009,0.31886882,0.061602615,0.030639306,0.17639177,-0.15860727,-0.2061587,0.016722929,0.32084957,0.20702487,0.25045675,-0.12760961,-0.16330965,-0.14686935,-0.04001097
family#F4F55,0.16844402,0.20544977,-0.20524853,0.120713174,-0.19398873,-0.5005785,-0.06205479,0.47733653,-0.1480992,0.11219158,0.10935979,-0.24024843,0.3716168,-0.07374377,-0.00603006,0.18364844,-0.20404194,0.056970034,0.21584332,-0.19611822,0.17724608,0.65493023,0.38154316,-0.3265389,0.28612453,-0.053590063,0.21083649,-0.358481,0.10244147,0.12059353,0.3111872,-0.2321684,-0.013870491,0.07483179,0.1950234,0.2581521,-0.19010462,0.07495048,0.087791376,0.15005901
family#F4F56,0.39254948,-0.42051023,-0.3458391,0.28000098,-0.23231247,-0.36993906,-0.016125228,0.40720028,-0.078334875,-0.17072545,0.11849686,0.39237776,0.33862215,-0.04060989,-0.07423497,0.13428333,-0.20417538,0.06470242,0.10576414,-0.22553168,0.22136912,-0.24105291,0.30207753,-0.30208835,0.07603837,0.024412721,0.18846999,-0.21144241,0.13683894,-0.056520507,0.2642097,-0.23114002,0.017280672,0.06349256,0.0650209,0.35888252,-0.22941999,0.03232373,0.2061933,-0.0010038747
family#F4F58,0.4838201,0.116296105,-0.2591301,0.38193956,-0.032037485,-0.5265603,0.023167614,0.26073897,-0.21528065,0.23043185,0.05855736,-0.20562088,0.42112532,-0.1509498,-0.40036976,0.16702181,-0.29497886,0.3801206,0.055561513,-0.26954457,-0.13591458,0.6887737,0.36162347,-0.2959396,0.07478749,0.23839867,0.05642187,-0.19595282,-0.06590356,-0.2477024,0.12604657,0.13489679,0.041347086,-0.0061499323,0.120208964,0.32598558,0.09063961,-0.22623351,0.22142607,-0.0010952903
family#F4M54,0.36458555,0.20549046,-0.5790661,0.23390555,-0.22207505,-0.5278151,0.08334533,0.18097234,-0.21217702,0.13239236,-0.17368884,-0.15868941,0.3648882,-0.23159568,0.022452137,0.26517552,-0.4233585,-0.004588206,0.2493074,-0.39973378,-0.25424364,0.51253814,0.29277295,-0.24181588,0.23122671,0.021882482,0.12671643,-0.30233693,0.17290275,0.10937555,-0.041216135,-0.3766431,-0.018945841,0.03793035,0.18598379,0.20722753,0.16230023,0.12309812,-0.2594626,0.22151469
family#F4M57,0.20899574,-0.19774486,-0.5569447,0.26642877,-0.23924887,-0.30226237,0.059289373,0.34561092,-0.21998292,-0.20022368,-0.16497009,0.20773783,0.27173826,-0.20082429,-0.1497338,0.30860955,-0.23918854,0.2450999,0.12010977,-0.3837163,-0.080178775,-0.14651927,0.39243847,-0.32947108,0.1690581,0.1812501,0.1760038,-0.3176828,0.054213353,-0.08454841,-0.08566684,-0.22889498,0.042593636,0.041311163,0.12212315,0.19785814,-0.17843896,0.051032785,-0.11787289,0.19268939
family#F4M59,0.18998268,0.11515264,-0.37654558,0.27856517,-0.07830475,-0.5137745,0.05522329,0.3162859,-0.21008486,0.14874493,-0.039924774,0.26043138,0.41153654,-0.21168242,-0.37061912,0.23318528,-0.13918263,-0.30142653,0.20466623,-0.35372993,0.17897272,0.09719617,0.35385218,-0.26142782,0.093131885,0.23553668,0.13176845,-0.36117968,0.09232358,-0.15360343,-0.036635265,-0.45712194,-0.020470036,0.008100028,0.08151157,0.18208618,-0.1711557,0.2543796,-0.1499994,0.096779585
family#F5F61,0.37843943,0.12744746,-0.65963167,0.36135277,-0.29211432,-0.23489541,-0.048208877,0.4529616,-0.22959653,0.071854584,0.13004874,0.031126663,0.32211244,-0.18981694,-0.25702956,0.15717793,-0.15097761,0.05395867,0.16118526,-0.27867526,0.27035883,0.34151062,0.14459288,-0.35709786,-0.086342886,-0.1089555,0.1767396,-0.24179628,-0.21251793,-0.5726493,0.32015377,-0.32305154,-0.023050321,0.010176701,0.2305608,0.3286154,-0.27028775,0.06863424,0.1124882,0.07245128
family#F5F62,0.39516973,-0.22127655,-0.18624672,0.27300408,0.20974353,-0.2143417,0.030330302,0.43406153,-0.42547274,0.30635157,0.082232095,0.17089888,0.38017458,-0.0245878,-0.3573551,0.30233845,-0.16023369,0.03688447,0.22854711,-0.19958813,-0.19948284,0.5015652,0.07110258,-0.35186547,-0.01603085,0.23744588,0.19213009,-0.09629313,-0.2553435,0.38458088,0.06456988,-0.1417967,-0.019163452,0.098211594,0.22392404,0.19580737,-0.30464345,0.61765647,0.21590754,-0.04534625
family#F5F65,0.37036312,-0.15900026,-0.038197365,0.0865187,0.0053762635,-0.13939375,-0.10265379,0.37173304,-0.09839421,0.14616254,0.09219394,0.32500282,0.42591006,-0.1480141,-0.2966471,0.24355781,-0.34651378,0.2906636,0.08945892,-0.16196468,0.21990058,0.04053037,0.08071756,-0.16587274,0.25209865,-0.06671348,0.19409376,-0.25883266,0.019509867,0.15611358,0.2878512,-0.3088919,-0.00010367201,-0.0020355182,0.26132384,0.23501606,-0.18724696,-0.04656353,0.118032254,0.15360878
family#F5F67,0.11731587,-0.01623764,0.08215315,0.0041932724,-0.11118567,-0.15587476,-0.07458838,0.26410785,-0.10258175,-0.019302147,0.17509422,-0.2729952,0.44495136,-0.08956784,-0.30178016,0.22291666,-0.46092787,-0.03112322,0.05267003,-0.24225546,0.043051712,0.5469392,0.22614604,-0.1311226,0.4439759,0.16889901,0.1692388,-0.30598375,0.034809057,0.0057635573,0.25279558,-0.3903953,0.038221758,0.1393782,0.44928092,0.2345785,-0.17047553,0.09400872,0.082388386,0.13951828
family#F5M60,0.369371,0.1272987,-0.7757652,0.26831856,-0.25681353,-0.21171911,0.057271406,0.43683282,-0.23344484,0.09894737,-0.1731262,0.050847385,0.32614684,-0.23795605,-0.26060286,0.19996221,-0.16231366,-0.35132027,0.17975032,-0.3185342,-0.074786864,0.30896896,0.12785013,-0.43069628,-0.07641832,-0.0046070213,0.14412238,-0.2908241,-0.31435877,-0.57619137,-0.05794654,-0.21765342,-0.03617435,-0.020904846,0.27300838,0.2123812,-0.1439311,0.09535465,-0.26137164,0.22437553
family#F5M63,0.20677105,-0.04109258,-0.3284723,0.17976406,0.0072621484,-0.40728313,0.014679766,0.2941192,-0.254312,0.22186476,-0.08546705,0.097515635,0.428034,-0.34487814,-0.2979418,0.13416861,-0.10171481,-0.03447937,0.12471957,-0.3482206,0.23820744,0.13142212,0.1719251,-0.22460316,-0.07358858,0.19605258,0.21824215,-0.5317177,-0.20523345,0.22638762,-0.0667748,-0.23180816,0.051286377,-0.027370298,0.1609021,0.24296567,-0.18200153,-0.4032037,-0.12062572,0.118867405
family#F5M64,0.3998236,-0.2466776,-0.32119894,0.22949968,0.1589474,-0.13581482,0.054404646,0.3678621,-0.12636054,0.26758325,-0.043570444,0.23424011,0.33345023,-0.027875734,-0.3203337,0.12595037,-0.27463475,-0.2835409,0.134682,-0.3633917,0.018190978,0.1314243,0.03546816,-0.12373843,0.10118339,0.06940114,0.14968023,-0.34362668,-0.15609093,0.32327902,-0.15970087,-0.023123235,0.009846974,0.049270675,0.22796522,0.38610876,-0.07060802,0.21865737,-0.30543032,0.0654013
family#F5M66,0.45825377,0.10447084,0.10662227,0.10179223,-0.12225666,-0.21501534,0.025056398,0.15320075,-0.05293227,-0.13417502,-0.18218552,-0.30027738,0.51417226,-0.116032586,-0.32567906,0.1084546,-0.59609956,0.101565935,0.072115466,-0.36635196,-0.07784432,0.45426035,0.1651952,-0.0646266,0.48969424,0.20250012,0.12646712,-0.14652792,-0.023004837,-0.027956778,-0.23020561,-0.23092262,0.08091779,0.030690292,0.35234195,0.3119455,0.06383168,-0.037250936,-0.15335064,0.010435982
family#F5M68,0.353683,-0.087722816,0.18060386,-0.03394814,-0.2955648,-0.46507552,0.0755791,0.2271933,-0.048001956,0.026396185,-0.02873169,0.5727308,0.5633181,-0.20753051,-0.27637988,0.10338614,-0.46994612,-0.05560073,0.19247372,-0.31222504,0.19381274,-0.1670979,0.37818477,-0.26332018,0.3503865,0.20980912,0.21260266,-0.05718922,-0.061469484,-0.140901,-0.14070727,-0.25075534,0.009125801,0.27212587,0.36735752,0.18317157,-0.121628836,0.08714622,-0.17983674,-0.05449831
family#F6F101,0.119522646,-0.05148255,-0.395126,0.0045417077,-0.020880787,-0.22879644,-0.030652605,0.2978761,-0.37816885,-0.09280901,0.16480333,0.17731237,0.46116123,-0.2271916,-0.39122584,0.20913045,-0.12200878,0.30244964,-0.013835704,-0.30982596,0.04141683,0.31262416,0.20491111,-0.0985877,0.098085634,0.23454425,0.18606497,-0.3779989,-0.19812077,0.3129129,0.14571266,-0.34648097,0.039846174,-0.0030194118,0.19824359,0.23433822,-0.16651358,-0.06274768,0.10900896,0.12738006
family#F6F70,0.30895782,0.09161706,-0.33221647,-0.19651964,-0.019824587,-0.6792751,-0.094683655,0.56429815,-0.24847142,-0.3467133,0.061408453,-0.035449795,0.33217403,-0.20567647,-0.12018309,0.08904076,-0.21140641,0.29263952,-0.003735923,-0.17248759,0.20877638,0.32136124,0.058873728,0.11931063,0.583142,-0.05953568,0.25639692,-0.30758697,-0.10046515,-0.030013466,0.2985311,-0.41007546,-0.13997719,-0.011040383,0.40271425,0.24827681,-0.21183473,0.24161026,0.08336679,0.12207843
family#F6F72,0.30720338,-0.2805684,-0.32083318,-0.024159819,-0.25297397,-0.36357662,-0.0615897,0.40191495,-0.1956418,0.13858034,0.18539803,0.11868617,0.3552904,-0.30835983,-0.06723436,0.26264295,-0.33024156,0.20532756,0.25435385,-0.2724919,0.17860031,-0.010236502,0.17943755,-0.08610169,0.3071574,-0.003344295,0.2373712,-0.17551483,-0.053639434,-0.32100713,0.30701652,-0.23323017,-0.070746444,-0.09304977,0.24246512,0.28933945,0.05795629,0.41721553,0.0889751,0.12546392
family#F6F74,0.11573231,0.1598613,-0.44656825,0.26459613,-0.180359,-0.19050057,-0.07315383,0.33798322,-0.14290595,0.20149347,0.15289271,-0.07126987,0.41539297,-0.32174218,-0.19447862,0.24605441,-0.326738,-0.04570793,0.107402116,-0.2862452,0.18617171,0.49731562,0.15194765,-0.13188668,0.10318816,0.23619151,0.24242452,-0.2063645,0.17270721,0.1891542,0.2662488,-0.17485118,0.010083651,0.17237496,0.17358896,0.25747424,-0.13255347,0.2974028,0.1373495,0.21311907
family#F6F76,0.26551968,-0.14336002,-0.17086536,0.1261783,-0.055573374,-0.4374676,-0.03025088,0.21640536,-0.27855122,-0.14049831,0.15872328,-0.02048539,0.40742397,-0.3407459,-0.2142116,0.26894373,-0.32715482,-0.25925112,0.050883826,-0.27075008,-0.160794,0.36371613,0.16523875,-0.30678293,0.03429115,0.23150618,0.17645837,-0.3318549,0.26646268,-0.03217268,0.14982519,-0.23915474,-4.1872077e-05,0.35074008,0.18452281,0.18387996,-0.09672685,-0.10760936,0.089952424,0.1596658
family#F6F77,0.43759492,-0.25683275,-0.24596766,-0.26077738,-0.4866859,-0.45577466,-0.03313407,0.28655222,-0.2598716,0.42024514,0.08219239,0.17634243,0.28771242,-0.15081118,0.050506324,0.17634767,-0.18741915,0.27341598,-0.06096404,-0.068568096,-0.123057686,0.20192675,0.084519394,-0.08974265,0.3459353,0.009176815,0.30488476,-0.28934515,-0.27274787,-0.24828233,0.36784527,-0.08867725,-0.09425766,0.15484008,0.1877834,0.26835138,-0.28771687,-0.07730043,0.2415335,-0.00876122
family#F6F79,0.3908439,0.07119184,-0.09195253,-0.07280392,-0.18384692,-0.40715972,-0.031952262,0.27905372,-0.26619965,-0.2625241,0.05374574,0.28079942,0.4542751,-0.38004303,-0.22579011,0.08092802,-0.068513714,-0.13835026,-0.24616022,-0.16425897,0.04207698,0.23977426,0.12262693,-0.25435582,0.2895444,0.15793516,0.20974457,-0.18566397,-0.28750318,0.3319443,0.094856925,0.0083863735,0.011777849,0.14334077,-0.072768286,0.31472272,-0.24336083,-0.22302017,0.3342828,-0.10591141
family#F6F82,0.28100362,0.19069391,-0.11816512,0.07040283,-0.073903315,-0.20715265,-0.09629748,0.36289954,-0.27045763,-0.16554359,0.07468684,0.27774462,0.40606794,-0.26903674,-0.047278125,0.22331634,-0.07150066,-0.27669787,0.07086473,-0.25454977,0.12753205,0.5134325,0.04579582,-0.09704734,0.32267913,0.10345373,0.26762608,-0.20780827,-0.04462517,0.26928383,0.21944906,-0.42278984,-0.01243199,0.17442377,-0.04043775,0.23930718,-0.21120521,0.13097547,0.11803686,0.13552652
family#F6F83,0.27847528,-0.25678024,0.1329379,0.045257803,-0.2985129,-0.37857684,-0.1009974,0.21693748,-0.1939849,-0.0734139,-0.18538973,-0.17362332,0.59827054,-0.42077994,-0.41677052,0.17485237,-0.12812236,-0.05486675,-0.05122245,-0.20462447,-0.0026906894,0.050145686,0.07273595,-0.28174022,0.27829307,0.30729333,0.23144002,-0.24007721,-0.20503889,-0.5361941,0.11758662,-0.09747321,-0.0053289393,0.14893927,-0.052424446,0.27302778,-0.22595921,0.0018483633,0.25717157,-0.04869921
family#F6F84,0.45123652,0.011733786,-0.2516202,-0.30239677,-0.4155448,-0.5943604,-0.048730005,0.41003668,-0.2984726,0.40794593,0.10306721,0.18424582,0.22278313,-0.21055685,-0.30459103,0.13506109,-0.20242023,-0.2586425,0.28721198,-0.1941779,0.2160356,0.15411715,-0.15767303,-0.104972035,0.33434483,0.06869822,0.50842476,-0.022765653,-0.060845416,-0.15381552,0.40884328,-0.29987592,-0.18653715,0.120698996,0.1640679,0.2581288,-0.20609418,-0.2756716,0.29679367,-0.06458383
family#F6F86,0.37172335,-0.1917696,0.10855837,-0.14523552,-0.17767525,-0.6392607,-0.05253486,0.3417349,-0.30678418,-0.25821996,-0.0031890816,0.15195082,0.3993922,-0.39927664,-0.37291127,0.2371181,-0.17065911,0.09449208,0.0036987993,-0.20803067,-0.040711403,0.35465658,-0.19132638,-0.2303934,0.07120709,0.15971805,0.3671175,-0.005980004,-0.4327502,0.22361334,0.101508535,0.012337883,-0.033077378,0.21562806,0.18730791,0.31604072,-0.22022909,-0.6752573,0.27921674,-0.12458497
family#F6F87,0.46298087,-0.2387001,0.15242921,-0.092522256,-0.1574351,-0.42611474,-0.10201758,0.2065193,-0.16043599,-0.31283188,-0.043144856,0.12760836,0.3317321,-0.38247582,-0.17685513,0.22900511,-0.1403045,0.43692997,0.13496736,-0.13162503,0.13089362,0.29662165,-0.17050946,-0.14798826,0.064282514,0.15430604,0.37116,-0.11676014,-0.29266095,0.20917422,0.31508878,-0.011189427,-0.09013739,0.17319086,0.22044472,0.3747887,-0.23487552,-0.13376285,0.2894334,-0.04447685
family#F6F89,0.3142771,0.17513742,0.45272368,0.03665824,0.030098284,-0.5240096,-0.07099127,0.31377307,-0.19859657,0.14392734,-0.014785542,0.23751372,0.53482133,-0.3485689,-0.2931149,0.22695392,-0.25669062,0.07348008,-0.07213425,-0.13420188,0.03699954,0.293979,0.086159974,-0.22976714,0.13110696,0.26175725,0.42322695,-0.13509189,-0.3770033,-0.4304039,0.0833183,-0.23740467,-0.030989492,0.21480492,0.13122511,0.2056505,-0.17113502,-0.1643327,0.21227589,-0.038025115
family#F6F91,0.38028222,-0.022562837,-0.30068684,0.02358405,-0.09855706,-0.3239729,-0.047458194,0.2198231,-0.32457906,-0.16875017,0.06079569,0.10394848,0.44082242,-0.39440358,-0.33915964,0.18775916,-0.32548937,-0.2481753,0.12768646,-0.2573248,0.09169994,0.2482427,0.04223505,-0.14905061,0.1630643,0.19525538,0.16775069,-0.26275757,0.14318134,0.14341225,0.09052237,-0.38459486,0.01839361,0.16474645,0.2154524,0.22508556,-0.15169011,0.41575903,0.09062961,0.112586685
family#F6F93,0.15129273,-0.049447726,-0.07534767,-0.09926507,-0.2501676,-0.41980112,-0.08545076,0.41818553,-0.29844692,0.43924293,0.11154797,0.06856686,0.3387517,-0.099812046,-0.3947357,0.23558624,-0.09552653,-0.09361513,0.20417851,-0.2208147,0.14828537,0.28641245,0.24126104,0.0836364,0.29020077,-0.11046165,0.35220274,-0.23206851,-0.15097925,-0.15129782,0.2839211,-0.33879954,0.03475076,-0.035526644,0.28412694,0.26287326,-0.24251373,0.20598008,0.03772799,0.17797746
family#F6F94,0.25088465,-0.010478493,0.06552418,-0.121873245,-0.30452937,-0.3584401,-0.07649243,0.37788597,-0.195947,-0.2547484,0.0032432175,0.14651576,0.422645,-0.093232796,-0.16160302,0.10768532,-0.04026689,0.062107235,0.3694726,-0.16072932,0.10695349,0.08528275,0.30046928,-0.094984405,-0.024700161,0.11410513,0.20868869,-0.16194147,-0.52050215,0.34388626,0.47360903,-0.1892707,-0.052904405,-0.020509414,0.3759799,0.32106915,-0.29708588,0.0018448553,0.27842128,-0.10617397
family#F6F96,0.34216505,-0.1481319,-0.17283143,-0.075128265,0.07534359,-0.6145255,-0.019765021,0.39254454,-0.2620884,0.09613957,-0.09194978,0.09791568,0.43989202,0.026643243,-0.23705064,0.22530726,-0.058853377,0.16362002,-0.03292862,-0.1943218,0.05365506,0.42307165,0.32346085,-0.27452993,-0.0027598948,0.20577835,0.19012648,-0.035103764,-0.48536056,-0.51751184,0.18798198,-0.21459588,-0.047027674,0.284019,0.18179287,0.27558798,-0.33369783,-0.4127171,0.2642054,-0.12133553
family#F6F97,0.33830428,-0.25036135,-0.23418742,-0.05595993,0.070799,-0.5252899,-0.04467854,0.39670363,-0.21795668,0.11416783,0.034390103,-0.098896794,0.38130343,-0.060885444,-0.14328697,0.14607544,-0.08002915,0.3114889,0.27247253,-0.18006825,0.14119403,0.3870914,0.3013316,-0.22709109,0.017782958,0.22295588,0.14887233,-0.048650555,-0.5140245,-0.52139086,0.3109687,-0.11883564,0.039865106,-0.00059584586,0.18921879,0.39914352,-0.24473241,-0.21234338,0.24039763,-0.095305525
family#F6M100,0.6485809,-0.0035390772,0.047660165,-0.15052707,-0.20565295,-0.32694143,0.082935415,0.13293526,-0.02809099,-0.23514232,-0.21622066,0.08770079,0.45249984,-0.061087437,-0.44296467,0.18130599,-0.14545865,-0.28653553,-0.06123776,-0.24921112,0.1758258,0.27214026,0.27049536,-0.19014865,-0.019452063,0.14703791,0.28650594,-0.26866734,-0.35593805,0.4101113,-0.18745574,-0.13179113,0.034193676,0.024572095,0.32380846,0.28018108,-0.2655182,0.12182044,-0.18268533,-0.047189772
family#F6M69,0.29347935,0.068837635,-0.4778619,-0.22318098,-0.04051003,-0.7875074,0.039615594,0.3944347,-0.42491594,-0.34378433,-0.15072066,-0.011165772,0.31376964,-0.21312551,-0.07950046,0.07714439,-0.39537504,0.060462803,0.024999786,-0.42023578,0.03530285,0.31484285,0.05013445,0.12067246,0.526612,-0.026152637,0.23925373,-0.31190464,-0.0407949,-0.01868503,-0.044381272,-0.34055844,-0.12605001,-0.04653892,0.44301784,0.35186878,0.16979086,-0.10260455,-0.26242682,0.22319645
family#F6M71,0.38170862,-0.2783324,-0.2875621,-0.2780779,-0.5032464,-0.44591945,0.047809493,0.43198916,-0.0859403,0.23674981,-0.22471902,0.18685025,0.32214555,-0.15765107,-0.09360041,0.119175434,-0.27124056,-0.060290612,0.024496565,-0.36797068,0.09145085,0.13472623,0.08325435,-0.1401652,0.3216374,-0.02950454,0.2677053,-0.109637275,-0.17502573,-0.39653474,-0.08963335,-0.08408567,-0.2097229,-0.06214128,0.22002451,0.27920502,-0.15353872,-0.28798082,-0.30060774,0.064017594
family#F6M73,0.39976832,0.22096355,-0.21192753,-0.033889398,-0.25353333,-0.26446843,0.034736965,0.2782303,0.04669286,0.21420133,-0.13806668,-0.043642063,0.40497828,0.034149416,-0.20062526,0.15836473,-0.37052083,0.22228914,0.067534134,-0.32368,-0.17676575,0.5676692,0.10818869,-0.31386662,0.10940727,0.18161002,0.3247953,-0.19453436,0.0030591162,0.31286484,-0.22469486,-0.38105914,0.018016504,0.35240316,0.11304824,0.25701633,-0.18528755,-0.15078107,-0.17278168,0.033289034
family#F6M75,0.34140098,-0.29229915,-0.22820204,0.23663469,-0.0004882686,-0.56249434,0.010945944,0.16450639,-0.019526044,-0.34268856,-0.18960495,0.1688711,0.4904547,-0.4474693,-0.21280107,0.11015301,-0.33216146,0.39084947,0.13854732,-0.25785252,0.22968559,-0.08878837,0.069014095,-0.22719823,0.076795176,0.22642969,0.2598632,-0.14321394,0.17517376,-0.097807206,-0.18440384,-0.2850922,-0.010358882,0.2334245,0.20936261,0.28815812,-0.23729482,0.2354116,-0.08661459,-0.025310634
family#F6M78,0.17973496,-0.2916139,-0.4171491,-0.0094843805,-0.03738011,-0.4702734,0.014713719,0.3927195,-0.32394803,0.3954017,-0.10249773,-0.110628426,0.33472583,-0.34082234,0.074444555,0.25322133,-0.13157345,-0.042608038,-0.030947387,-0.38825774,0.07506366,0.24905862,0.19045705,-0.03120469,0.26964754,-0.047953524,0.22464478,-0.19173203,-0.21749312,-0.116590284,-0.05637633,-0.5989578,0.011652819,0.099768855,0.15667993,0.15590103,-0.23034589,0.19800036,-0.247996,0.1948359
family#F6M80,0.26995608,-0.041473918,-0.24169528,0.072543494,-0.068169974,-0.36406583,0.0033009737,0.20496334,-0.2616721,-0.22452714,-0.12504092,0.051745135,0.42947662,-0.28183833,-0.21285996,0.2997754,-0.08672647,0.21510626,-0.16906634,-0.31568184,0.12076344,0.3230554,0.26086432,-0.13003905,0.26358733,0.28523606,0.15015884,-0.30381396,-0.20957664,0.24502397,-0.089470945,-0.46247187,0.01922735,0.08446061,0.068329364,0.1633136,-0.19716986,0.1298301,-0.0642654,0.09984051
family#F6M81,0.547496,0.2183512,-0.16454136,-0.06565375,-0.12631896,-0.30152914,0.028164918,0.32849765,-0.06340278,-0.23319156,-0.024524515,0.25800356,0.4181816,-0.32980722,-0.107697695,0.1253457,-0.07949016,0.36570826,0.32128444,-0.37518772,0.0796624,0.47206852,0.064075135,-0.2163522,0.37179077,0.011810712,0.27667415,-0.26656777,-0.19576024,0.37962633,-0.3106656,-0.10499429,0.009112881,0.16060373,-0.17706168,0.23589014,-0.19533743,-0.00094544905,-0.20653914,-0.072240025
family#F6M85,0.39990813,0.07973182,-0.4847353,-0.014884468,-0.2889186,-0.5794127,-0.01737329,0.38697508,-0.3445681,0.2751306,-0.105998956,0.029477596,0.37825978,-0.43346617,-0.18721119,0.1299346,-0.18439925,0.35143375,0.25084555,-0.37672645,-0.06301585,0.21510594,-0.23524804,-0.03479035,0.23964725,0.016476225,0.2733457,-0.37089872,-0.081549324,0.006827313,-0.10248342,-0.38706508,0.0014810531,0.108646415,0.36873823,0.17147768,-0.15115434,0.2014631,-0.32528764,0.21679525
family#F6M88,0.3035998,-0.17773394,0.16837049,0.057316568,-0.15586913,-0.36515543,-0.03340901,0.4185646,-0.39711732,-0.2509663,-0.14003621,-0.13296491,0.40358955,-0.40719068,-0.13653255,0.18794516,-0.22918819,-0.19290315,-0.030259717,-0.3922283,0.019304642,0.3319775,-0.042059835,-0.11307518,0.061820697,0.071804136,0.2994884,-0.30129248,-0.12781376,0.08786431,-0.11066955,-0.4154332,0.014423935,0.099672265,0.19492583,0.09955462,-0.17499341,0.00935848,-0.10585555,0.14911945
family#F6M90,0.39390576,-0.16600035,0.08818321,-0.05773382,-0.134169,-0.36658713,0.02046248,0.2277249,-0.0131741725,-0.29372317,-0.099514656,0.26570025,0.37497586,-0.27473652,-0.36634007,0.2003861,-0.2090801,0.29586285,0.1383301,-0.3612463,0.040728346,0.47002488,-0.16835219,-0.09930799,0.0521479,0.019326674,0.27258304,-0.17790054,-0.067531124,0.25272185,-0.20751233,-0.045546744,-0.07036795,0.29071274,0.19923647,0.3191536,-0.2543221,-0.45423514,-0.16159469,-0.078818545
family#F6M92,0.45307294,-0.10522235,-0.09870039,-0.31390712,-0.546838,-0.40800387,0.089960344,0.3605838,-0.20957357,0.44982997,-0.0992459,0.23019947,0.30272934,-0.08196674,-0.39040574,0.17303324,-0.21434462,0.14488596,0.1555203,-0.23941706,-0.2645644,0.37194675,0.09873857,0.03882135,0.34612563,-0.08283127,0.33659077,-0.1621755,-0.186266,-0.31184345,-0.13889873,-0.14269099,-0.10453479,-0.0017369626,0.22075655,0.1973898,-0.14949709,-0.14990853,-0.3289131,0.053888157
family#F6M95,0.3033963,0.037099786,-0.3032544,-0.009669226,-0.23501828,-0.37744933,0.04056419,0.45974493,-0.40503615,-0.27561375,-0.18552485,0.10231464,0.34946793,-0.17490658,-0.090374835,0.20322995,-0.080763526,0.31068322,0.22619396,-0.37424952,-0.07280587,0.05774676,0.30612874,0.023252456,0.010303676,0.117016725,0.16621378,-0.3488787,-0.38333058,0.26587868,-0.0013017858,-0.41143346,-0.023446936,-0.06554794,0.3425431,0.18029097,-0.08790509,0.19019361,-0.31075084,0.23973565
family#F6M98,0.21692818,-0.17328358,-0.26929,0.020178845,-0.0777348,-0.51103,0.007182259,0.37222755,-0.310117,0.08193605,-0.14050986,-0.23282154,0.34522504,-0.23274833,-0.12330166,0.32755852,-0.22296362,-0.05957892,0.1213564,-0.39890054,0.0034334867,0.3189425,0.28216416,-0.17808707,0.029557044,0.15239419,0.13646384,-0.18879104,-0.3632212,-0.35901582,-0.057765704,-0.2558287,-0.00036731546,-0.043799933,0.22735307,0.2557368,-0.09476615,0.19434395,-0.12905948,0.19170254
family#F6M99,0.3861507,0.15597875,-0.2552835,0.03257528,0.1176517,-0.5307408,0.043661553,0.21475802,0.027748998,0.19015567,-0.086616755,0.3926482,0.48391023,0.009558749,-0.2405755,0.19250163,-0.27908248,0.11121064,0.2071142,-0.33539566,0.1114476,0.078877695,0.19321302,-0.27104077,0.24034397,0.036605053,0.18923365,-0.17021334,-0.5506165,0.25907648,-0.12854587,-0.4253088,0.03152527,0.37968737,0.077316165,0.21356654,-0.222195,0.09043775,-0.13318478,-0.067987725
family#F7F103,0.4005019,0.18289523,-0.3808129,0.37418324,-0.0013648527,-0.3356412,-0.03974309,0.3674315,-0.17390792,0.19221966,0.12524204,0.14008418,0.43740103,-0.27209112,0.14619431,0.2386925,-0.19541071,-0.17299022,-0.023025742,-0.13493204,0.24757624,0.35591152,0.3319501,-0.19993927,0.04515422,-0.07317526,0.2861346,-0.19747558,-0.04438768,0.11658214,0.23960853,-0.17536806,-0.07527665,0.022787977,0.22607122,0.26625085,-0.15719473,0.04545704,0.14021067,0.18477166
family#F7F105,0.15481119,-0.32826772,-0.0774578,0.2695571,-0.028111761,-0.1880571,-0.058987033,0.41958305,-0.2276227,-0.36442342,0.10456812,-0.12407812,0.24829772,-0.20744908,0.2673119,0.24200206,-0.28817597,0.035358783,0.17726585,-0.22697702,0.2793266,0.108972274,0.46385103,-0.48385254,0.5566402,-0.07800366,0.5292991,-0.34610596,-0.10678901,-0.09084122,0.28077608,-0.3587475,-0.04747892,0.0099383425,0.04144418,0.23865493,-0.22062862,-0.024515076,0.11582195,0.17473449
family#F7F106,0.45027718,0.22926207,-0.11242907,0.3823585,-0.3870003,-0.3216739,0.010330063,0.3408943,-0.2639422,0.30567637,0.08282561,0.23031852,0.30574077,-0.17641066,0.06682962,0.23311989,-0.087342195,-0.09027176,0.22508821,-0.13649203,0.051078252,0.3693981,0.17021604,-0.50418186,0.49891758,0.045617767,0.4685421,-0.22608666,-0.26823527,-0.41356197,0.32653952,0.30311796,-0.08548372,0.07615118,-0.14613074,0.16585118,-0.19733806,0.1552512,0.29134455,-0.055157833
family#F7F108,0.5749027,-0.25041482,0.036224913,0.31476858,-0.47753724,-0.19484118,-0.025336826,0.33807018,-0.179402,0.04789273,0.2556878,0.07054621,0.3873006,-0.2093561,-0.07448977,0.110758595,-0.060907118,0.32167208,0.17295761,-0.12978624,-0.10145681,0.24737197,0.089591146,-0.44530708,0.15120922,0.03670843,0.49579445,-0.033016935,-0.04500522,0.37301436,0.3076989,-0.12586041,-0.09192876,0.17823225,-0.09783613,0.30182254,-0.20399338,0.027938478,0.27519587,-0.09111136
family#F7F111,0.15461671,-0.005055339,-0.21387267,0.21903431,-0.089074366,-0.12893605,-0.05813761,0.40665632,-0.14945771,-0.23557785,0.12169144,0.03898664,0.35189462,-0.2695475,-0.06661058,0.30067307,-0.16646905,0.11708972,0.16067421,-0.27257958,0.16332673,0.47315186,0.13292632,-0.31354934,0.077156454,0.24586873,0.21810608,-0.16483553,-0.07404709,-0.2780237,0.25570124,-0.45143536,-0.07302373,0.25419024,0.05122621,0.1693034,-0.29513338,0.22086821,0.11852777,0.13759887
family#F7F114,0.19014531,-0.09467325,-0.26490766,0.29298335,-0.24651417,-0.49644554,-0.043131724,0.33985668,-0.40087217,0.017229615,0.08321611,0.114485554,0.3504576,-0.24193753,-0.27559862,0.25737545,-0.06887383,0.16851355,0.12445235,-0.26436526,0.019054336,0.0766929,0.19416414,-0.26710948,0.23952064,0.22385442,0.258749,-0.3552785,0.16101661,0.22544435,0.12956767,-0.37995258,0.037216283,0.072049,0.022796258,0.23283067,-0.18088809,0.25127542,0.09839089,0.17915192
family#F7F116,0.21115579,-0.08405829,-0.25732216,0.32473847,-0.16026857,0.09270652,-0.049910072,0.43441063,-0.23428988,0.36794567,0.20034271,0.18519783,0.4167886,-0.25857934,-0.04902372,0.2678201,-0.15475984,0.21560085,0.0035921019,-0.375796,0.14098051,0.17270179,0.42224497,-0.3456689,0.12649646,0.1871819,0.12706208,-0.19185723,-0.37813535,-0.22072585,0.2832207,-0.5606074,0.054969918,0.009604736,0.011225398,0.14787702,-0.18014534,0.02898656,0.16899794,0.15658744
family#F7F118,0.47868162,-0.07000651,-0.100034624,0.4574216,-0.06962597,-0.15212405,-0.009204357,0.24085133,-0.33245453,-0.17709965,0.12941495,-0.04972242,0.5136181,-0.076859325,-0.26050952,0.15787168,-0.13892509,0.14967832,0.055500273,-0.18594703,-0.026092628,0.25376284,0.5017818,-0.23180923,0.27560765,0.28206125,0.23837012,-0.08411746,-0.36962453,0.45180884,0.118245065,-0.03760912,0.13079779,0.4188647,-0.058614634,0.29427525,-0.1445204,-0.4058978,0.28160137,-0.11929553
family#F7F119,0.26997623,0.110462874,-0.07804422,0.33783957,-0.43184143,-0.31492338,0.08305664,0.26983672,-0.29579493,0.31654978,0.05330077,0.25215527,0.41352415,-0.1402989,-0.13706386,0.119050264,-0.070637494,0.05959736,0.004599153,-0.14094482,-0.022624075,0.3054902,0.56762034,-0.40345755,0.3702972,0.12831984,0.39256856,-0.28406656,-0.12693723,-0.27101249,0.06600875,0.42229292,-0.060802132,0.2440264,-0.1472956,0.40106574,-0.16743062,0.32736722,0.32488662,-0.06858571
family#F7F121,0.37218148,0.19555788,-0.31697243,0.5724588,-0.5115483,-0.2316096,-0.03503138,0.5159163,-0.1972356,0.37138426,0.054224618,0.28955704,0.32353196,-0.165206,0.17805801,0.13713218,-0.20545986,-0.25707066,0.21603891,-0.13264166,0.13744976,0.3445919,0.42854345,-0.40654638,0.1601326,0.04074047,0.4486128,0.030007169,-0.24757862,-0.23384261,0.33155635,0.24193576,-0.0702799,0.37563193,-0.11300232,0.32549393,-0.22398998,0.08216719,0.28472185,-0.06747714
family#F7F124,0.17577153,-0.07175281,-0.31727344,0.25078505,-0.19212075,-0.4452108,-0.082944855,0.6444917,-0.21793705,-0.17021343,0.093790166,0.017447785,0.37751338,-0.41351807,0.27265897,0.26086056,-0.23072743,0.046925224,0.26353493,-0.22791162,0.18763757,0.2155725,0.16919489,-0.25126848,-0.10199909,0.024459312,0.32242277,-0.10248661,-0.19058108,0.20143743,0.32667017,-0.5674213,-0.047791842,0.2828845,-0.040367644,0.12708527,-0.2719117,0.077736855,0.09780796,0.19968404
family#F7F126,0.27222672,-0.020134447,-0.21407293,0.11120515,0.03783198,-0.37030557,-0.010211846,0.31350288,-0.38739237,0.033714984,0.11734069,0.11391532,0.45126757,-0.40671492,-0.08495497,0.26391846,-0.114314005,-0.3056744,0.15149105,-0.3185104,-0.009308461,0.25569022,0.19154514,-0.16576411,-0.089033134,0.18943301,0.21498895,-0.3761285,0.02110131,-0.20294367,0.15085994,-0.34590897,0.06765605,0.11536579,-0.051869985,0.22138998,-0.14856997,-0.18967846,0.1098423,0.15880406
family#F7F127,0.38698703,-0.007941477,-0.094561346,0.23227245,0.14817768,-0.56262255,-0.036314406,0.33721665,-0.15356964,0.04510148,0.0387591,0.08183549,0.38524953,-0.56857103,-0.019952297,0.24946411,-0.31995586,-0.22795609,-0.012139826,-0.20045713,-0.30011618,0.3893832,0.09462801,-0.112881534,0.033330433,0.22396265,0.2965143,-0.2647314,-0.014469814,-0.35524485,0.3319911,-0.17275484,0.040406324,0.28508672,-0.27792162,0.33276802,-0.09957191,-0.028065661,0.2636948,-0.041661482
family#F7F129,0.3476425,-0.06763283,0.007269597,0.18804368,0.14034459,-0.7201292,-0.11916758,0.2141968,-0.17720744,0.15915103,0.04250429,-0.019520063,0.4008726,-0.5138594,-0.32852277,0.15468119,-0.24391255,-0.18047178,-0.24380231,-0.122880705,0.27001828,0.13706174,0.18274796,-0.124295674,0.12797217,0.19301477,0.33530402,-0.14111586,0.23819648,0.2205319,0.06018887,-0.38123688,0.007884642,0.2007888,-0.11300428,0.33830684,-0.20248862,0.059615515,0.3244807,-0.016167404
family#F7M102,0.30512902,0.15168059,-0.005858255,0.20670728,-0.062181897,-0.38363564,0.078795224,0.3560605,-0.33287898,0.20254822,-0.16026698,0.15015131,0.41498098,-0.19863771,0.18227091,0.2128251,-0.32448336,0.25292537,-0.07327581,-0.37756404,-0.07897173,0.35359254,0.29007787,-0.30684194,0.053694107,-0.04889178,0.40245846,-0.29959282,-0.061688367,0.16727832,-0.10392099,-0.19069692,0.0060408725,0.043911934,0.29888022,0.26630634,0.022172587,0.03325023,-0.17426963,0.20983858
family#F7M104,0.31618673,-0.2895544,-0.04539225,0.3569074,0.06410686,-0.18959904,0.110755585,0.30403644,-0.07824784,-0.4170281,-0.12848319,-0.111842655,0.2862881,-0.060580555,0.27114314,0.14035057,-0.3092937,-0.04498179,0.06228251,-0.4842901,0.060290292,0.13801935,0.43857,-0.48815265,0.54699904,-0.07159868,0.56283057,-0.32332796,-0.11131383,-0.09030682,-0.103610896,-0.37390924,-0.052050535,-0.015492892,-0.011418553,0.23894522,-0.058989335,0.043276984,-0.18042016,0.1340389
family#F7M107,0.21689972,0.18432595,-0.45546556,0.2999042,-0.16387613,-0.34565702,-0.004175559,0.38780832,-0.23856686,0.18384941,-0.09238044,-0.026598481,0.35354584,-0.28794983,0.010085961,0.11392099,-0.027300727,0.20833184,0.26709455,-0.35182017,0.021846943,0.35380974,0.020902272,-0.3490401,0.42594978,-0.044881836,0.33876762,-0.36162496,-0.18154041,-0.2571325,-0.10077117,-0.5502929,-0.06782746,0.11688843,0.007814894,0.26680672,-0.26418543,-0.07235512,-0.2865843,0.24014151
family#F7M109,0.23717184,-0.18528922,-0.3632924,0.27065668,-0.2849102,-0.09206514,-0.012676956,0.45592052,-0.27889588,0.061309267,-0.10536794,0.20303756,0.38278642,-0.30497184,-0.018947497,0.13398828,-0.15977022,-0.20599525,0.14161758,-0.30938452,0.08885132,0.21230385,0.12972987,-0.2695002,0.29965013,-0.015241575,0.2738749,-0.34811568,-0.032469627,0.23948227,-0.08829926,-0.39446372,-0.09409072,0.18760042,0.061363816,0.17978029,-0.23064601,0.050170515,-0.26787615,0.23881082
family#F7M110,0.38678822,0.0899196,-0.042454354,0.3185636,-0.17771688,-0.15179382,0.06976503,0.3221953,-0.032892335,-0.2701165,-0.08873025,-0.12009104,0.46622702,-0.51154995,-0.08563072,0.038596094,-0.16103846,-0.10224273,-0.042242885,-0.30956545,-0.12703933,0.38338813,0.06998657,-0.39084712,-0.012186117,0.24246617,0.21710244,-0.1855577,-0.12577611,-0.31433836,-0.29935253,-0.108140826,-0.12289753,0.31342787,-0.06152529,0.3473831,-0.25173268,-0.020043448,-0.15127833,0.021281568
family#F7M112,0.34850428,-0.043232758,0.02661561,0.33227003,0.08247463,-0.4216736,0.038358275,0.2706325,-0.022177232,0.3851166,0.014514849,0.15660417,0.4701219,-0.5510856,-0.30769017,0.12928626,-0.15291983,0.31911457,0.0897017,-0.33664277,0.22211365,0.045751505,0.13284184,-0.32014444,0.20001645,0.29046482,0.16294669,-0.0677875,-0.2359449,-0.05558454,-0.1583259,-0.23127744,-0.0218557,0.28051928,-0.0205698,0.27600303,-0.22711869,0.07468173,-0.16320267,-0.04833675
family#F7M113,0.44371766,-0.29056728,-0.021462528,0.3050673,-0.42422414,-0.41493723,0.07383542,0.33386168,0.039051976,-0.039866716,-0.13038422,0.03075006,0.40539208,-0.27995563,-0.24007598,0.19984905,-0.029560346,-0.11931717,0.091579705,-0.40085414,0.20264865,0.22634886,0.058587763,-0.3398126,0.03800932,0.07949567,0.4329649,-0.005003474,-0.08840028,0.38585502,-0.16738485,-0.09894358,-0.06850757,0.08937262,-0.14337353,0.3104194,-0.24669711,-0.18084705,-0.13208324,-0.074576415
family#F7M115,0.5051757,0.072921045,-0.12513222,0.4383433,-0.32285154,-0.07894086,0.1154124,0.41849768,-0.027680088,0.43394887,-0.26195982,0.3239845,0.3827932,-0.18472329,-0.038185574,0.12930217,-0.15041018,0.15847984,-0.10189054,-0.16883568,0.032997657,0.14845215,0.5097661,-0.5039939,0.24557939,0.10559196,0.24105018,-0.12777099,-0.513086,-0.33065042,-0.24640611,0.25104168,0.039349332,-0.008993247,-0.18125045,0.33040124,-0.19358031,0.18581378,-0.1984459,-0.014939834
family#F7M117,0.4984274,-0.0328825,-0.34878007,0.39795437,-0.052648086,-0.15574114,0.07939246,0.25457877,-0.0072399876,-0.13926771,0.0146568185,-0.08246415,0.5267777,-0.0926309,-0.2678141,0.18363748,-0.19703245,0.44067657,0.07182773,-0.29550424,0.10726093,0.27402928,0.39692986,-0.19693647,0.21280707,0.2571889,0.124445744,-0.04312564,-0.6039214,0.41621208,-0.26489145,-0.044331394,0.10314375,0.35304037,-0.048800003,0.19010843,-0.34453785,-0.12561779,-0.1549065,-0.0804663
family#F7M120,0.3335335,-0.038121946,-0.34898862,0.16687663,-0.17700393,-0.28521338,0.018062586,0.22728774,-0.23521511,0.18400691,-0.07665072,-0.034858577,0.5010012,-0.3544179,-0.15686858,0.29384688,0.010425886,-0.06653199,-0.012152532,-0.34670618,0.19587259,0.29146463,0.36669102,-0.27975053,0.27016902,0.19913933,0.20683685,-0.23083219,0.17552114,-0.20603961,-0.046931934,-0.5902205,0.030673843,0.060968757,-0.11780425,0.09571113,-0.24943696,-0.22271554,-0.101333976,0.11864366
family#F7M122,0.20608969,0.14843836,-0.5316853,0.33247972,-0.3987474,-0.15811719,0.035298638,0.37070626,-0.2261295,0.2579069,-0.053623334,-0.0136527475,0.4162741,-0.36120045,0.23780368,0.24281827,-0.24600977,-0.11589778,0.2185909,-0.48943293,-0.044102557,0.42854413,0.34999406,-0.3201415,0.05211366,0.054934494,0.186801,-0.36210072,-0.13535385,-0.13515426,-0.1146421,-0.61575794,0.016843503,0.27314225,0.008715677,0.09726949,-0.11747695,0.15803686,-0.31009725,0.27448145
family#F7M123,0.44065276,-0.22916049,-0.5644273,0.42793798,-0.12656793,-0.33481637,0.044208273,0.37454602,-0.025381414,-0.13819802,-0.17225496,0.0065971776,0.41079164,-0.4748233,0.21863395,0.0661925,-0.32215127,-0.13615821,0.3149915,-0.30978748,0.1109164,0.16856776,0.20666686,-0.21388172,-0.12512022,0.16143702,0.3024979,-0.032104116,-0.24658568,0.19711451,-0.21059406,-0.19859126,0.01580581,0.26262566,-0.20164736,0.42917082,-0.188543,0.26941139,-0.406793,-0.029972803
family#F7M125,0.3932114,-0.023969956,-0.23909019,0.21911193,0.21711956,-0.4168824,0.022339677,0.24426177,-0.0024286376,0.0052804486,-0.1625835,0.12293461,0.425683,-0.47056305,-0.10702765,0.13413295,-0.1943883,0.40626416,0.17242983,-0.26895487,0.15874307,0.41442585,0.086717114,-0.155805,-0.03408502,0.1219515,0.22340296,-0.28043252,-0.34594086,-0.3587556,-0.13232557,-0.23200957,-0.016318757,0.21435757,-0.28577796,0.3462548,-0.2186367,0.42611217,-0.19004086,-0.10132785
family#F7M128,0.12792595,0.014054371,-0.05875603,0.10853866,-0.08015471,-0.52782047,0.021588057,0.39684522,-0.23033738,0.064652644,-0.08634014,0.11839216,0.39989448,-0.379987,0.05950454,0.14220946,-0.39778826,0.13882609,-0.13053322,-0.4524898,-0.16712466,0.33998513,0.1922485,-0.20176776,-0.012199945,0.19125825,0.2973596,-0.36141253,0.12184767,-0.25730145,-0.08825638,-0.31937784,0.06444746,0.31289676,0.042782277,0.31511715,0.0009950912,0.064660005,-0.1190953,0.18579687
family#F7M130,0.22728409,-0.051522285,-0.2317655,0.051325407,-0.13115567,-0.63709146,0.052419413,0.26920438,-0.33503973,0.11578319,-0.03943509,0.16477735,0.4293798,-0.37752205,-0.2604845,0.23037928,-0.19891176,0.18764305,-0.19760716,-0.3532204,-0.14099906,0.4134426,0.21150672,-0.29097435,0.05465368,0.2190438,0.28906125,-0.3595799,0.25771922,0.14217848,-0.13675757,-0.10672026,0.050096642,0.28574467,0.028169578,0.15554537,-0.26035863,0.00011316134,-0.05317635,0.11301677
family#F7M131,0.5676932,-0.24683711,-0.24469449,0.38057646,-0.06387558,-0.28570545,0.105416454,0.25746977,-0.047198676,-0.10379087,-0.082199715,0.017397545,0.3925692,-0.5941299,-0.095227934,0.16936466,-0.43183428,-0.06276132,-0.005748958,-0.29235974,0.17848338,0.15257354,0.30182874,-0.27099234,-0.15440796,0.18000862,0.37410343,-0.09471315,-0.26838553,0.18329692,-0.21187218,-0.14402519,-0.010848876,0.23354459,-0.22375435,0.17087881,-0.23446544,0.5227602,-0.1256508,-0.07793649
family#F8F133,0.32894588,0.08741287,-0.6043576,0.06716324,-0.1416359,-0.6670405,-0.0542731,0.42213783,-0.23401836,0.022916839,0.05116048,-0.02878171,0.34452084,-0.17500582,-0.09371207,0.095710754,-0.26797333,-0.036860414,0.20329386,-0.27855614,0.18544537,0.33145025,0.26693887,-0.18138514,0.27857292,-0.14646494,0.16322961,-0.21588954,-0.09158181,0.33572856,0.3202495,-0.27427256,-0.054488335,-0.027760584,0.35042396,0.34968892,0.04639404,0.09442811,0.100260556,0.111991115
family#F8F135,0.23223124,-0.233197,-0.32241675,0.13051204,-0.08175723,-0.2855158,-0.07063063,0.40540752,-0.19998497,-0.22297657,0.049066167,0.0049430025,0.37126935,-0.22768934,-0.1162884,0.172438,-0.11662672,0.17068256,0.1325346,-0.29921317,0.20419642,0.13585982,0.21433766,-0.23332632,0.12186683,-0.12174706,0.07026466,-0.28552797,-0.41815367,-0.35094103,0.34307602,-0.26585028,-0.03303493,-0.019143058,0.19827288,0.255576,-0.2377121,-0.24701695,0.09969521,0.10437272
family#F8F137,0.19121706,0.11567605,-0.12383952,0.08323265,-0.0034343866,-0.09477065,-0.084110394,0.4292142,-0.29803208,0.21890284,0.13506204,0.14612257,0.4251388,-0.28797364,-0.22033547,0.25546935,-0.112162314,0.07660048,0.059018992,-0.30164933,0.1349816,0.2677906,0.28573754,-0.18688889,0.1983922,0.07531383,0.090069085,-0.2414071,-0.18038476,-0.025220882,0.25942457,-0.2981274,0.06621218,-0.066931784,0.17927882,0.23251095,-0.18517359,-0.065766975,0.13799892,0.15669969
family#F8M132,0.26368636,0.13809057,-0.4439697,0.009256135,-0.12583978,-0.6267172,0.028788267,0.41621128,-0.3349185,0.050583925,-0.16554523,-0.035912506,0.34581938,-0.05210577,-0.008447918,0.24463923,-0.112607084,-0.26977462,0.119281195,-0.29780853,-0.045449305,0.3829098,0.2794386,-0.24585524,0.22095436,-0.022964003,0.073111296,-0.40726528,-0.032135155,0.36731622,-0.031946152,-0.27954477,-0.026195545,0.032696888,0.3502834,0.17921202,-0.22106214,-0.08420884,-0.3088312,0.2372045
family#F8M134,0.51039195,-0.29915062,-0.49791294,0.08286071,-0.10660979,-0.38155195,0.071787916,0.36854616,-0.114381194,-0.28810275,-0.14583445,0.14932932,0.37237275,0.066465236,-0.14131817,0.104650766,-0.26150733,-0.2943434,0.19931273,-0.38678685,0.053379405,0.14096637,0.18098666,-0.23091601,0.15043475,-0.12886794,-0.030467113,-0.07243048,-0.39647785,-0.41203162,-0.113451295,-0.34995803,-0.06823664,0.038677197,0.15918988,0.24841142,-0.19149482,0.34379503,-0.27585393,0.122559175
family#F8M136,0.40873396,0.19646926,-0.17426585,0.13527085,0.049888134,-0.16464794,0.06407881,0.33281776,-0.107303225,0.34583652,-0.03622316,0.073789425,0.5082085,-0.08075944,-0.2593632,0.12723014,-0.121422365,-0.21548562,0.105643086,-0.35935473,-0.0059924107,0.352534,0.2035342,-0.18645258,0.2487094,0.061449364,-0.053981807,-0.13083252,-0.39105356,-0.019964296,-0.23913589,-0.23023812,0.02339197,0.0040876945,0.122108415,0.2952383,-0.23803617,0.21827103,-0.12479567,-0.024125082
family#F8M138,0.37299564,-0.19331881,-0.14090666,0.0827733,-0.10037832,-0.2575974,0.023484545,0.28172278,0.014915654,-0.19137076,0.07601975,-0.021855144,0.5543558,0.09693965,-0.3775448,0.18016636,-0.16322571,0.04520608,0.101907365,-0.2980635,0.118301526,0.15120941,0.2869482,-0.29513216,0.613603,0.16746038,-0.09320755,-0.16920824,-0.40346304,0.1555488,-0.17624277,-0.27909213,-0.010680183,0.36511844,0.2021087,0.24661566,-0.21924564,0.10743469,-0.07466007,-0.06347525
family#F9F140,0.4171589,0.16106889,0.029466685,0.104092635,-0.105060235,-0.7163327,-0.09162215,0.42455298,-0.21845058,-0.2697048,0.040372584,0.18233526,0.26363155,-0.21479875,0.15019053,0.25183943,-0.47456262,-0.10688372,0.08550345,-0.2067549,0.28311178,0.12179857,-0.018000405,-0.213947,0.007871056,-0.21507035,0.44741327,-0.3242644,-0.12544088,-0.39577457,0.28720632,-0.34893566,-0.075224355,-0.023179064,0.16152583,0.2837169,0.014867708,0.07659458,0.1273471,0.21060748
family#F9F141,0.35675156,-0.23111805,0.089447886,0.1172979,0.1479622,-0.111699246,-0.032395583,0.37204254,-0.39812678,0.4096758,0.19453448,0.046378415,0.27808136,-0.08148735,0.07348449,0.20789213,-0.38845986,-0.00084119895,0.31448427,-0.18352638,-0.15825573,0.3308008,0.22270632,-0.31308377,0.43044695,-0.31153426,0.58940107,-0.13134715,-0.2546118,-0.061008107,0.26071608,-0.20500813,-0.13210048,0.19173604,-0.049628533,0.3619974,-0.062558636,0.11961676,0.2694564,-0.012796859
family#F9F143,0.3728543,0.16093744,-0.029645346,0.12102829,-0.19080961,-0.0063315653,-0.07938665,0.29854712,-0.23630582,0.07583592,0.051081948,0.094286986,0.40620512,-0.27805275,0.1158344,0.13504799,-0.13599822,0.05863643,-0.066833235,-0.1825076,0.16835415,0.07937904,0.2819038,-0.5340394,0.55054873,0.007969993,0.41670072,-0.044693027,-0.42488542,0.2795004,0.31471413,-0.13438892,-0.11338218,0.060530722,-0.09850218,0.23758902,-0.20700946,0.11627799,0.5093813,-0.16783912
family#F9F145,0.37146103,-0.14446802,-0.047963064,0.4121419,-0.46654573,-0.2686129,-0.033460174,0.37503296,-0.19540721,-0.3206667,0.06620635,-0.06496092,0.48776698,-0.077153176,-0.0006706911,0.20682172,-0.15738308,-0.18759601,0.025201647,-0.16072403,-0.004416815,0.32785672,0.2358995,-0.32645142,0.29509205,0.345915,0.37147507,0.09380893,-0.39685014,-0.036481827,0.2922866,-0.08499463,-0.05041762,0.055792667,-0.18311144,0.2749407,-0.105383076,-0.13953465,0.24462774,-0.08033593
family#F9F148,0.38137418,-0.17079884,-0.021365616,0.36764854,-0.46566117,-0.2736294,-0.0073504304,0.21616611,-0.21845981,-0.3300631,0.023782536,-0.033425692,0.457297,-0.049089454,-0.09839493,0.17459702,-0.09956608,-0.35553733,0.04065251,-0.17437999,0.076812506,0.31202838,0.3124247,-0.2752743,0.287629,0.37018064,0.25277433,-0.14756586,-0.29623264,-0.11844023,0.14349082,-0.04411693,-0.060845934,0.05972282,-0.16689804,0.28211635,-0.22858639,-0.30375114,0.28987893,-0.13477674
family#F9F150,0.39008996,-0.23339106,0.037728354,0.4148498,-0.4419407,-0.18950298,0.0015177802,0.3057264,-0.2788879,-0.29008734,-0.12581153,0.0485934,0.45891947,-0.05324927,-0.11682625,0.16927482,-0.1859817,0.42904162,0.09305394,-0.2520428,0.005495795,0.3633463,0.290939,-0.27816153,0.28623706,0.35591507,0.31320924,-0.023034655,-0.31607845,-0.124666326,0.1381494,-0.06336563,-0.038056493,0.2505527,-0.18936792,0.2042062,-0.071635775,0.09867745,0.25688902,-0.10169792
family#F9F152,0.18690796,0.0007199615,-0.3535696,0.19936095,-0.26000962,0.04329878,-0.020138502,0.33872312,-0.38030028,-0.12336783,0.23264767,0.18159132,0.48143765,-0.3357786,-0.31725258,0.2561162,-0.06344334,0.25274923,0.23512487,-0.3249134,-0.101719745,0.3956712,0.19994196,-0.23598546,0.26307184,0.19762285,0.28214017,-0.24946243,-0.05682145,0.04658225,0.11763041,-0.3155686,-0.0058390903,0.041155588,-0.0020053864,0.21287912,-0.1280834,-0.40888292,0.09439934,0.11015738
family#F9F154,0.24665293,0.08981016,-0.19614066,0.12235312,-0.24362782,-0.09394592,-0.0752188,0.41519228,-0.28177625,-0.21254148,0.11888796,-0.019487338,0.37747476,-0.2154729,-0.18179405,0.2776762,-0.1292436,-0.047545582,0.12310367,-0.24054052,0.055742204,0.39565167,0.29469424,-0.27914155,0.23633824,0.106899746,0.16099422,-0.18459596,-0.32969877,0.07558383,0.2366759,-0.34881204,-0.08771359,0.09497887,-0.0017228487,0.17856868,-0.22158106,-0.013255786,0.11912383,0.13635571
family#F9F156,0.36869586,-0.06547637,-0.39630505,0.17289731,-0.09946957,-0.31083578,0.012173952,0.31187597,-0.43634742,0.18097433,0.12962388,0.10428302,0.44136047,-0.24683583,-0.34057537,0.24003509,-0.08552586,0.3709684,0.14969072,-0.3535407,0.09704658,0.38966563,0.21969578,-0.22356142,0.06752151,0.22336495,0.11807192,-0.31572133,0.12638439,-0.30053627,0.16727947,-0.16292565,0.073221624,-0.0062732385,0.028365225,0.18354669,-0.16310063,0.118694164,0.10415155,0.08453652
family#F9F158,0.27122912,-0.2083307,-0.20566526,0.021535553,-0.19698685,-0.44717506,-0.09079693,0.49255428,-0.25488836,0.3391984,0.20657624,-0.031870596,0.26328877,-0.3000408,-0.04016824,0.1459313,-0.17405309,-0.28236902,0.14572264,-0.22977857,0.20628779,0.15169321,0.11753136,-0.07467775,-0.10729406,-0.18424308,0.39846113,-0.1896151,-0.11355686,0.10288246,0.32706434,-0.42115328,-0.0456362,0.16651413,0.055178758,0.34966475,-0.20749652,0.27540374,0.0840308,0.15736632
family#F9F160,0.27667,-0.12255997,-0.2771849,0.073172145,0.0932526,-0.1348165,-0.06935221,0.3908877,-0.3728011,-0.21726164,0.12407377,0.041507248,0.37407774,-0.21391,-0.07398851,0.20819278,-0.1547112,0.19273245,0.14905071,-0.3410568,-0.038060844,0.17146112,0.15505348,-0.15001029,0.010361875,0.110290036,0.15926775,-0.22540823,-0.36156076,-0.098831475,0.25104296,-0.5551959,0.009074108,0.2788248,0.14526473,0.21994507,-0.24761592,0.053431135,0.10002711,0.1010798
family#F9F163,0.0212132,0.24049114,0.032432705,0.059259333,-0.2710072,-0.03849986,-0.07986432,0.4819253,-0.26789027,-0.27410716,0.19463882,0.10248931,0.35682502,-0.37103212,-0.3651366,0.07725581,-0.4441167,0.13988604,0.05273168,-0.40765217,0.25169504,0.442955,0.26253146,-0.14934036,-0.16183266,0.19716108,0.2759845,-0.2439404,-0.12866868,0.050166074,0.25218537,-0.3413699,-0.023264665,0.18541704,0.37959674,0.2580585,-0.06487911,-0.09167703,0.14872248,0.1853492
family#F9F164,0.42017695,-0.28502178,0.18210152,0.09373505,0.23622197,-0.25217384,0.006470394,0.21034604,-0.297474,0.22230506,0.098407,0.07971455,0.33557588,-0.46673936,-0.2535198,0.18632056,-0.5583079,0.22828348,-0.10410195,-0.1643296,-0.30352634,0.074389756,0.46974984,-0.26546255,-0.067318015,0.2946737,0.19772494,-0.2674094,-0.23682262,-0.3446951,0.12095006,-0.1226222,0.015745293,0.2607564,0.31342137,0.25185403,0.08032918,-0.13641581,0.26041216,-0.08208188
family#F9F168,0.2784139,-0.052678026,-0.05256523,0.074879944,-0.19943124,-0.094739206,-0.08059259,0.34095174,-0.14133392,0.28982553,0.031923305,-0.122841254,0.38378742,-0.32613054,-0.2221812,0.15152615,-0.49584848,0.24049862,-0.16070753,-0.3077992,0.17691943,0.44533277,0.16201244,-0.16554107,0.21346624,0.22547933,0.27529413,-0.18557592,0.050381836,-0.0029065076,0.24128827,-0.2818779,-0.018927764,0.039705966,0.19343133,0.24601948,-0.059270076,0.2726085,0.12236352,0.16332021
family#F9F169,0.3943209,0.0065454305,0.111283235,0.091156185,-0.12461341,-0.60143757,-0.09285758,0.16342801,-0.07387756,-0.31505597,-0.029412147,0.39707303,0.4459979,-0.09993701,-0.32745016,0.17339702,-0.45841563,0.2789233,-0.16945243,-0.14758061,0.0537667,-0.14619166,0.32866183,-0.19469047,0.1997644,0.31765014,0.24946366,-0.34901008,0.21294686,0.21358004,0.17914653,-0.47075826,-0.015707487,0.3404083,0.1859851,0.20848902,-0.16453086,-0.5086725,0.26885554,-0.034891702
family#F9M139,0.26041806,0.17227264,-0.27445042,0.11760028,-0.16376373,-0.756415,0.004673589,0.43050805,-0.27894986,-0.24550173,-0.11182641,0.17907852,0.24273399,-0.29064175,0.14507031,0.1684902,-0.4404161,0.28376555,0.07694094,-0.3612064,0.08613242,0.12485864,-0.024437554,-0.23138185,0.052208226,-0.16327406,0.4289385,-0.3211513,-0.21964584,-0.3877421,-0.083016515,-0.266823,-0.05969965,-0.0025392617,0.18871903,0.33172017,-0.041415162,0.036784843,-0.24335231,0.23038413
family#F9M142,0.22042523,-0.21391481,-0.1342408,0.119523935,0.03504111,-0.03889522,0.037484482,0.441737,-0.34381005,0.21405129,-0.17418969,0.068705484,0.3348082,-0.30412045,0.086868025,0.23900361,-0.2554882,0.032814708,0.10754905,-0.41596302,-0.19025688,0.30673978,0.35802487,-0.38221866,0.5184903,-0.27809483,0.33538383,-0.1450284,-0.17662117,-0.094555594,-0.08091767,-0.42997292,-0.14632788,0.06900791,0.089758635,0.24941076,-0.10639518,-0.09378082,-0.19933063,0.23208626
family#F9M144,0.4180824,0.1363023,-0.114971064,0.3085963,-0.04415008,0.083544485,0.038842518,0.43720472,-0.30537066,0.20988357,-0.2005201,0.17274062,0.45957312,-0.23635302,0.19468255,0.18085049,-0.20448749,0.060587145,0.007200745,-0.32872307,-0.09770085,0.108287364,0.25212348,-0.45316666,0.49432334,0.10755854,0.2647542,-0.41161808,-0.20907758,0.2461675,-0.030239988,-0.5001328,0.029359981,0.03697174,0.08980874,0.17839463,-0.042715643,0.07141298,-0.24203548,0.24172539
family#F9M146,0.133314,-0.072686076,-0.40303284,0.1392058,-0.27482933,-0.26307008,-0.014863065,0.45758474,-0.29082653,-0.20296147,-0.16084914,-0.1631817,0.4862343,-0.23777086,-0.009845337,0.15937303,-0.19003227,0.2392833,0.07839243,-0.34249392,0.12138107,0.38720542,0.26141804,-0.32511583,0.30928695,0.15201135,0.21130997,-0.21843988,-0.24900861,0.077638626,-0.14206238,-0.27701145,0.021447565,-0.011068049,0.01378233,0.18089221,-0.09202193,0.111262575,-0.1214902,0.1911123
family#F9M147,0.38461664,0.056989055,-0.17670995,0.2757455,-0.22895965,-0.5265138,0.05775007,0.16850509,0.028997926,0.14692469,-0.012746795,0.28060374,0.5455887,-0.029907197,-0.3021569,0.19912903,-0.27270904,0.114262484,0.13179861,-0.3132332,0.18575637,0.040666208,0.18356586,-0.19838327,0.08013366,0.22599699,0.34176987,-0.16165507,-0.3582274,-0.3882367,-0.13324817,-0.38421872,0.03305555,0.38145798,-0.141998,0.16927592,-0.2358508,0.04331214,-0.16379334,-0.04792303
family#F9M149,0.26555187,-0.061855312,-0.24379309,0.14462538,-0.21513453,-0.28759798,0.02857448,0.15368691,-0.2518512,-0.17528772,-0.06635558,0.078802325,0.5090482,-0.3143282,-0.14593883,0.27006552,-0.1435693,0.37617844,0.17430879,-0.31369203,0.1352336,0.15974288,0.26262835,-0.21727252,0.2755416,0.24168456,0.16485074,-0.31348363,-0.18178537,-0.068519235,-0.05778759,-0.4155066,0.030006068,-0.0020803795,0.01346847,0.13573308,-0.1940229,0.2913183,-0.10637093,0.13236457
family#F9M151,0.5113916,0.12432829,-0.13685282,0.09490394,-0.35678777,-0.08247938,0.035810247,0.21361667,-0.01838463,-0.21042976,-0.096378036,0.050447118,0.4079544,-0.1438948,-0.24110344,0.19419385,-0.1273573,-0.23369598,0.200662,-0.19364941,0.25798625,0.23763031,0.32102007,-0.36093807,0.44924283,-0.045870878,0.37218565,-0.009044754,-0.27484065,0.1661139,-0.26556495,-0.030128475,-0.18800749,0.17945302,-0.12117545,0.25542408,-0.2854182,0.35900348,-0.11295679,-0.0805306
family#F9M153,0.48013648,0.13556373,-0.054064482,0.12398591,-0.38610312,-0.040533297,0.0377779,0.23073512,-0.109682694,-0.24078599,-0.069914326,0.02866721,0.3227825,-0.24454613,-0.12573479,0.17148362,-0.15629363,-0.021655183,0.116711766,-0.33892104,0.15612458,0.25130153,0.32974744,-0.27701464,0.32832304,-0.04432969,0.14380832,-0.059577562,-0.40147588,0.15693142,-0.2855022,-0.018716386,-0.18043953,0.103966,-0.107701354,0.30277953,-0.21408863,0.13684213,-0.19779448,-0.07348344
family#F9M155,0.2937197,-0.15251261,-0.25493047,0.18347058,-0.17026916,-0.2774214,0.08969171,0.26181373,0.04198867,0.2042632,-0.13588355,0.12241868,0.4530687,-0.18972965,-0.45336223,0.1251106,-0.08427942,-0.31327996,0.115233526,-0.49026132,0.0919249,0.07401149,0.2664409,-0.32052073,0.07447697,0.2736162,0.076218,-0.09504705,-0.15525721,-0.41553816,-0.15737823,-0.3446154,-0.044169698,0.103824146,0.056579683,0.319324,-0.26708534,-0.029444588,-0.090767786,-0.06262266
family#F9M157,0.4763571,-0.21808618,0.0742306,0.07483924,0.06045137,-0.5036807,0.08005473,0.3276829,-0.16525194,0.4719254,-0.21572635,0.07414864,0.2171417,-0.19340645,-0.09295766,0.24792552,-0.5134465,0.27184504,0.08276233,-0.25232372,-0.11608062,0.23037279,0.119743094,-0.07403791,-0.07240963,-0.27407658,0.65562,-0.28226984,-0.2737878,0.09986223,-0.1554845,-0.18120186,-0.12909988,0.038883664,-0.089784734,0.20708032,-0.11826842,-0.14159158,-0.2424563,0.074971355
family#F9M159,0.4032102,-0.05898617,-0.15277846,0.079268076,0.20249483,-0.19785596,-0.0133186765,0.32343268,-0.070395105,-0.32756355,-0.14679316,0.08972623,0.35352477,-0.37532097,-0.09956099,0.20000377,-0.2073978,-0.23161834,0.11083618,-0.29436907,0.15084788,0.23822579,0.10706045,-0.09525699,-0.058831997,-0.07343912,0.20417894,-0.17720899,-0.4778323,0.018182341,-0.2677584,-0.17405482,-0.058984783,0.09850076,0.10252817,0.30451095,-0.2081172,0.20605145,-0.17141905,-0.07195441
family#F9M161,0.2993815,0.07399708,-0.17129622,0.045311626,0.21714692,-0.22407186,-0.002363112,0.2744235,-0.059519053,0.2252914,0.055868585,0.069352336,0.549185,-0.43929604,-0.23675759,0.1280151,-0.17451486,0.2895663,0.053724874,-0.31771016,0.13341917,0.3513889,0.0804868,-0.24400154,0.6420495,0.1424257,0.013944723,0.028436953,-0.48461813,-0.23033127,-0.15672353,-0.2527328,-0.0027946986,0.21855664,0.059058737,0.28326085,-0.26363155,-0.025171814,-0.12460548,-0.08706209
family#F9M162,0.37743083,0.22379273,0.1645033,0.07886147,0.08948535,-0.11208655,0.031791057,0.3542167,-0.10903028,-0.4083564,-0.18701795,0.098640315,0.2759926,-0.28936413,-0.32967585,0.18352433,-0.32561678,-0.15894593,-0.05047608,-0.24086082,-0.0043505193,0.4625933,0.20330043,-0.0010538569,-0.14716507,0.021026941,0.5570139,-0.08632792,-0.23474766,0.07589007,-0.2969289,-0.19680329,-0.07898632,0.28022486,0.064214535,0.35379204,-0.14953437,0.33833086,-0.19145282,-0.035824034
family#F9M165,0.16245793,-0.09789377,-0.40446866,0.10587949,-0.0014941812,-0.32394928,0.053949174,0.25321883,-0.24421714,0.16457929,-0.11558957,0.17254308,0.39722443,-0.42778322,-0.20923069,0.18654515,-0.32453826,-0.15845856,-0.05239478,-0.40078717,0.22178745,0.23587216,0.36523294,-0.13621204,-0.09050984,0.23990127,0.2083051,-0.2445683,-0.06748125,-0.18302779,-0.07426935,-0.30029094,-0.010580448,0.10286893,0.23107846,0.21955472,-0.1844436,0.19778864,-0.10683099,0.12252308
family#F9M166,0.34012115,-0.29845163,0.061872043,0.092609756,0.23766199,-0.18891858,0.057692602,0.2948824,0.06005988,0.23760927,-0.1681334,0.105795436,0.35164574,-0.43294194,-0.29801163,0.044003565,-0.52206993,0.13107933,0.31452477,-0.19990051,0.16099297,0.08508231,0.36607978,-0.19009437,-0.060540307,0.2579565,0.3161569,-0.08957885,-0.45026258,-0.3637811,-0.16886307,-0.2440577,-0.04699291,0.39606723,0.3308484,0.286681,-0.2471354,0.106178015,-0.23225172,-0.082199216
family#F9M167,0.3875994,-0.15658967,0.08916763,0.14284487,0.05293076,-0.20485274,0.019018698,0.2807612,-0.05450829,0.4715861,-0.0033033548,-0.05079433,0.27991372,-0.18105166,-0.20247014,0.22864419,-0.6673107,0.011784956,-0.2389377,-0.3083087,-0.06425297,0.48099297,0.072272055,-0.21438317,0.18042113,-0.047670376,0.464151,-0.23342898,-0.0882324,0.029839115,-0.21803808,-0.026872354,-0.09861306,0.028393593,-0.09835871,0.31671497,-0.07555642,-0.08780861,-0.08785381,0.07104614
family#F9M170,0.17373227,-0.2007431,-0.25962684,0.061080523,-0.13627689,-0.5160581,0.021727117,0.21206716,-0.16377608,-0.26752195,-0.09896953,-0.074821964,0.4493831,-0.34474608,-0.29855072,0.15264668,-0.39027786,-0.1359163,-0.15123823,-0.309254,0.11220515,0.48328885,0.31727225,-0.16644317,0.16057225,0.22299182,0.1895038,-0.31315726,0.19984284,0.16937755,-0.069584444,-0.02617297,0.047093313,0.32075584,0.24435475,0.20843886,-0.17184998,0.39767805,-0.082278594,0.13802221
family#Father,0.16768375,0.005510503,-0.20542754,0.22862941,-0.15001312,-0.62304693,0.4000608,0.4193504,-0.21406354,-0.029110769,0.4309177,0.041623645,0.16250204,-0.37129948,-0.38477626,0.4154672,-0.32675403,0.12144021,-0.47653538,0.1274387,0.38064572,0.20480785,0.16185993,-0.5169544,0.36655694,0.20900472,-0.07892134,-0.50038445,-0.07596172,0.04062391,0.3066908,-0.21958761,-0.05851503,0.2653696,-0.046860978,0.07197009,-0.11584901,-0.052755777,-0.27333584,-0.12185802
family#Female,-0.16493356,-0.024813613,-0.3247545,0.2824726,-0.20793854,-0.4353182,0.26181504,0.09420478,-0.040353518,-0.13711628,-0.59422356,-0.19372378,0.15068251,-0.38928953,-0.65534663,0.59493273,-0.39041585,0.09774172,0.70714676,-0.019797426,0.22910719,0.40101576,-0.005404959,-0.7206802,0.30215538,-0.08151288,-0.162325,-0.3007007,-0.27720824,0.17420666,-0.5058849,-0.2641971,0.056951586,0.4327796,0.3145905,-0.045111645,0.21693227,-0.0013023909,0.47575513,0.04825384
family#Grandchild,-0.08228852,-0.034549158,-0.20343357,0.057403695,-0.13585953,-0.6172172,0.19323212,0.23661913,-0.4296437,0.055992622,-0.16871694,-0.19681641,0.58879614,-0.22792162,-0.3266731,0.32244566,-0.5604101,-0.45479515,0.18948415,0.050735235,0.22697824,0.19950978,0.06932494,-0.623542,0.051746693,0.11580171,0.0047587953,-0.13900664,-0.0863112,0.024290765,0.0062511633,-0.40258825,-0.04905943,0.33095068,0.052924305,0.3239236,0.03923543,-0.16146682,0.050438255,0.29426005
family#Granddaughter,-0.029915065,0.052013546,-0.18556881,0.087995574,-0.060519665,-0.30357257,0.21376878,0.24680758,-0.28341526,-0.024416713,-0.13095245,0.34006453,0.30563557,-0.2204716,-0.40633723,0.38825104,-0.3987253,-0.23172162,0.709206,-0.3187304,0.28301126,0.5214596,-0.20077923,-0.6111024,0.12882027,-0.30202383,-0.07637792,-0.38890865,-0.29279807,0.060248807,-0.16617863,-0.38215727,0.097364165,0.50975674,0.055149052,-0.008984595,0.15621547,-0.13384195,0.43287688,0.46835804
family#Grandfather,0.208269,-0.057168826,-0.37197295,0.18507947,-0.15339471,-0.7030842,0.3912287,0.4845173,-0.23972712,0.034434136,0.13478495,-0.060075484,0.19847156,-0.35297245,-0.3770165,0.4388904,-0.37058365,0.34671393,-0.4568955,0.075219996,0.3517966,0.106111415,0.22677049,-0.54330814,0.38116184,0.26955348,-0.12119162,-0.5858399,0.09044314,6.348225e-06,0.12536219,-0.26599032,-0.09597709,0.27426183,-0.11265899,0.12738226,-0.11102774,-0.10914194,-0.3098334,-0.13430437
